{"learner":{"attributes":{"best_iteration":"75","best_score":"0.5149928898548017","scikit_learn":"{\"_estimator_type\": \"classifier\"}"},"feature_names":[],"feature_types":[],"gradient_booster":{"model":{"gbtree_model_param":{"num_parallel_tree":"1","num_trees":"96"},"iteration_indptr":[0,1,2,3,4,5,6,7,8,9,10,11,12,13,14,15,16,17,18,19,20,21,22,23,24,25,26,27,28,29,30,31,32,33,34,35,36,37,38,39,40,41,42,43,44,45,46,47,48,49,50,51,52,53,54,55,56,57,58,59,60,61,62,63,64,65,66,67,68,69,70,71,72,73,74,75,76,77,78,79,80,81,82,83,84,85,86,87,88,89,90,91,92,93,94,95,96],"tree_info":[0,0,0,0,0,0,0,0,0,0,0,0,0,0,0,0,0,0,0,0,0,0,0,0,0,0,0,0,0,0,0,0,0,0,0,0,0,0,0,0,0,0,0,0,0,0,0,0,0,0,0,0,0,0,0,0,0,0,0,0,0,0,0,0,0,0,0,0,0,0,0,0,0,0,0,0,0,0,0,0,0,0,0,0,0,0,0,0,0,0,0,0,0,0,0,0],"trees":[{"base_weights":[-1.9468524E-4,-7.4919546E-1,8.1157315E-1,-2.2596478E-1,-1.2089328E0,3.2044533E-1,1.5213062E0,-5.976802E-1,1.3691357E-1,-9.895419E-1,-1.4155488E0,7.80719E-1,-3.6959645E-1,1.6501267E0,1.1819113E0,-8.307499E-1,-1.8407138E-1,9.7815853E-1,-5.655328E-2,-6.6543055E-1,-1.2252935E0,-9.1720396E-1,-1.5080565E0,1.1197968E0,4.9843508E-1,-9.5654204E-2,-7.353726E-1,1.524891E0,1.8252008E0,8.0915046E-1,1.3925377E0,-1.0823834E0,-4.655848E-1,5.4950982E-2,-5.157104E-1,4.334999E-1,1.2029251E0,-3.8689932E-1,3.7408158E-1,5.7143646E-1,-7.337733E-1,-1.4915534E0,-1.0421581E0,-2.9144502E-1,-1.414531E0,-1.7602112E0,-1.3891902E0,1.3545952E0,7.7209777E-1,1.7151426E-1,7.371078E-1,3.458427E-1,-3.8575366E-1,-5.2355564E-1,-1.230977E0,1.5991625E0,1.2553889E0,1.6687499E0,1.866428E0,9.390822E-1,2.6462802E-1,1.1714694E0,1.5610037E0,-5.9198767E-2,-2.6102677E-2,-4.9223583E-2,-1.6880816E-2,3.2601126E-2,-8.414817E-3,-3.9262373E-2,-1.0904062E-2,3.4992807E-2,-3.4451034E-2,4.0528502E-2,7.5457856E-2,-5.3295262E-2,-9.502441E-3,2.8268078E-2,2.4373327E-4,-2.9239027E-2,5.5697557E-2,-4.0222842E-2,-2.8086295E-3,-5.6882095E-2,-8.391141E-2,-6.636421E-2,-3.5709113E-2,3.8439028E-3,-3.665956E-2,-7.631245E-2,2.868546E-2,-9.3633845E-2,-7.702993E-2,-3.1597737E-2,-7.141029E-2,1.921816E-2,6.9924004E-2,2.023214E-2,5.023334E-2,2.283692E-2,-6.503999E-3,2.1901716E-2,4.912112E-2,3.336864E-2,-2.1939885E-3,-9.606705E-3,-4.088594E-2,9.315798E-3,-3.505957E-2,-8.924549E-2,-4.914195E-2,8.3352745E-2,6.82226E-2,7.323242E-2,4.7176704E-2,8.4535934E-2,2.2755176E-2,9.506555E-2,8.6914085E-2,5.361558E-2,2.646412E-2,3.1678017E-2,-1.0781533E-2,6.1716486E-2,1.7576138E-2,7.89439E-2,-8.639236E-3],"categories":[],"categories_nodes":[],"categories_segments":[],"categories_sizes":[],"default_left":[0,0,0,0,0,0,0,0,0,0,0,0,0,0,0,0,0,0,0,0,0,0,0,0,0,0,0,0,0,0,0,0,0,0,0,0,0,0,0,0,0,0,0,0,0,0,0,0,0,0,0,0,0,0,0,0,0,0,0,0,0,0,0,0,0,0,0,0,0,0,0,0,0,0,0,0,0,0,0,0,0,0,0,0,0,0,0,0,0,0,0,0,0,0,0,0,0,0,0,0,0,0,0,0,0,0,0,0,0,0,0,0,0,0,0,0,0,0,0,0,0,0,0,0,0,0,0],"id":0,"left_children":[1,3,5,7,9,11,13,15,17,19,21,23,25,27,29,31,33,35,37,39,41,43,45,47,49,51,53,55,57,59,61,63,65,67,69,71,73,75,77,79,81,83,85,87,89,91,93,95,97,99,101,103,105,107,109,111,113,115,117,119,121,123,125,-1,-1,-1,-1,-1,-1,-1,-1,-1,-1,-1,-1,-1,-1,-1,-1,-1,-1,-1,-1,-1,-1,-1,-1,-1,-1,-1,-1,-1,-1,-1,-1,-1,-1,-1,-1,-1,-1,-1,-1,-1,-1,-1,-1,-1,-1,-1,-1,-1,-1,-1,-1,-1,-1,-1,-1,-1,-1,-1,-1,-1,-1,-1,-1],"loss_changes":[2.258764E4,4.647458E3,6.213576E3,1.2192794E3,4.645625E2,3.3472744E3,3.165332E2,4.301797E2,7.446098E2,3.8041016E2,2.4243066E2,6.043828E2,4.2240967E2,1.1269531E2,1.5644019E2,2.617168E2,1.2775381E2,1.0403577E2,5.293146E2,1.78315E2,1.3903467E2,2.582118E2,1.3102148E2,2.3313062E2,2.6911658E2,3.0913382E2,1.8872394E2,5.947412E1,1.0705078E1,5.114731E1,4.5663086E1,9.538989E1,7.701381E1,1.25027E2,5.387181E1,7.570326E1,7.121692E1,2.8111447E2,1.14005066E2,7.0124084E1,9.540271E1,7.540576E1,1.5921301E2,6.025659E1,1.03811646E2,3.1993652E1,8.865869E1,7.2190186E1,9.85661E1,1.2551997E2,1.4577332E2,1.2001633E2,1.2156079E2,1.5992685E2,7.215765E1,3.5908203E1,4.2206665E1,1.1499878E1,4.0649414E0,3.1338501E1,2.530543E1,2.8216553E1,2.286914E1,0E0,0E0,0E0,0E0,0E0,0E0,0E0,0E0,0E0,0E0,0E0,0E0,0E0,0E0,0E0,0E0,0E0,0E0,0E0,0E0,0E0,0E0,0E0,0E0,0E0,0E0,0E0,0E0,0E0,0E0,0E0,0E0,0E0,0E0,0E0,0E0,0E0,0E0,0E0,0E0,0E0,0E0,0E0,0E0,0E0,0E0,0E0,0E0,0E0,0E0,0E0,0E0,0E0,0E0,0E0,0E0,0E0,0E0,0E0,0E0,0E0,0E0,0E0,0E0],"parents":[2147483647,0,0,1,1,2,2,3,3,4,4,5,5,6,6,7,7,8,8,9,9,10,10,11,11,12,12,13,13,14,14,15,15,16,16,17,17,18,18,19,19,20,20,21,21,22,22,23,23,24,24,25,25,26,26,27,27,28,28,29,29,30,30,31,31,32,32,33,33,34,34,35,35,36,36,37,37,38,38,39,39,40,40,41,41,42,42,43,43,44,44,45,45,46,46,47,47,48,48,49,49,50,50,51,51,52,52,53,53,54,54,55,55,56,56,57,57,58,58,59,59,60,60,61,61,62,62],"right_children":[2,4,6,8,10,12,14,16,18,20,22,24,26,28,30,32,34,36,38,40,42,44,46,48,50,52,54,56,58,60,62,64,66,68,70,72,74,76,78,80,82,84,86,88,90,92,94,96,98,100,102,104,106,108,110,112,114,116,118,120,122,124,126,-1,-1,-1,-1,-1,-1,-1,-1,-1,-1,-1,-1,-1,-1,-1,-1,-1,-1,-1,-1,-1,-1,-1,-1,-1,-1,-1,-1,-1,-1,-1,-1,-1,-1,-1,-1,-1,-1,-1,-1,-1,-1,-1,-1,-1,-1,-1,-1,-1,-1,-1,-1,-1,-1,-1,-1,-1,-1,-1,-1,-1,-1,-1,-1],"split_conditions":[-1.02008246E-1,1.4826089E-1,-1.0580742E-1,-3.4050262E-1,7.1859735E-1,2.8542015E-1,-7.4343667E-3,-6.963E-1,-7.7123433E-1,1.6010727E-1,-7.0176685E-1,-5.375355E-1,9.6153235E-1,1.2158835E0,3.8568893E-1,-4.4509563E-1,2.2621506E-1,-2.2016587E0,-6.3088834E-1,-9.5053464E-1,-3.4050262E-1,1.6745124E0,-1.8695252E0,-3.891593E-1,2.3642847E-1,4.4444445E-1,4.96904E-1,9.994161E-1,2.805869E-1,1.1646577E0,1.190273E0,2.0076544E0,-6.547375E-1,-7.9038066E-1,5.626391E-2,4.9166912E-1,4.917897E-1,-2.635497E0,4.685075E-1,-5.0218195E-1,4.141956E-1,-3.6449936E-1,-1.0643587E0,-1.8501353E-1,-5.1402426E-1,-9.5173234E-1,-2.2548863E-1,-1.5535706E0,-2.3026711E-1,-4.2508528E-1,-3.4050262E-1,-9.8489106E-1,-1.8502973E-1,-1.0538177E0,8.1873786E-1,7.154055E-2,6.009541E-1,3.2959583E0,-1.8502973E-1,2.3681884E-1,1.3241863E0,1.6079185E0,2.2579682E0,-5.9198767E-2,-2.6102677E-2,-4.9223583E-2,-1.6880816E-2,3.2601126E-2,-8.414817E-3,-3.9262373E-2,-1.0904062E-2,3.4992807E-2,-3.4451034E-2,4.0528502E-2,7.5457856E-2,-5.3295262E-2,-9.502441E-3,2.8268078E-2,2.4373327E-4,-2.9239027E-2,5.5697557E-2,-4.0222842E-2,-2.8086295E-3,-5.6882095E-2,-8.391141E-2,-6.636421E-2,-3.5709113E-2,3.8439028E-3,-3.665956E-2,-7.631245E-2,2.868546E-2,-9.3633845E-2,-7.702993E-2,-3.1597737E-2,-7.141029E-2,1.921816E-2,6.9924004E-2,2.023214E-2,5.023334E-2,2.283692E-2,-6.503999E-3,2.1901716E-2,4.912112E-2,3.336864E-2,-2.1939885E-3,-9.606705E-3,-4.088594E-2,9.315798E-3,-3.505957E-2,-8.924549E-2,-4.914195E-2,8.3352745E-2,6.82226E-2,7.323242E-2,4.7176704E-2,8.4535934E-2,2.2755176E-2,9.506555E-2,8.6914085E-2,5.361558E-2,2.646412E-2,3.1678017E-2,-1.0781533E-2,6.1716486E-2,1.7576138E-2,7.89439E-2,-8.639236E-3],"split_indices":[110,107,145,77,107,107,107,136,107,16,79,107,107,145,145,158,60,54,188,79,77,107,54,67,106,0,26,135,123,135,110,87,187,107,45,4,79,54,172,135,23,59,110,178,69,188,23,122,81,67,77,1,71,79,83,172,134,197,71,172,84,107,133,0,0,0,0,0,0,0,0,0,0,0,0,0,0,0,0,0,0,0,0,0,0,0,0,0,0,0,0,0,0,0,0,0,0,0,0,0,0,0,0,0,0,0,0,0,0,0,0,0,0,0,0,0,0,0,0,0,0,0,0,0,0,0,0],"split_type":[0,0,0,0,0,0,0,0,0,0,0,0,0,0,0,0,0,0,0,0,0,0,0,0,0,0,0,0,0,0,0,0,0,0,0,0,0,0,0,0,0,0,0,0,0,0,0,0,0,0,0,0,0,0,0,0,0,0,0,0,0,0,0,0,0,0,0,0,0,0,0,0,0,0,0,0,0,0,0,0,0,0,0,0,0,0,0,0,0,0,0,0,0,0,0,0,0,0,0,0,0,0,0,0,0,0,0,0,0,0,0,0,0,0,0,0,0,0,0,0,0,0,0,0,0,0,0],"sum_hessian":[3.7147832E4,1.932098E4,1.7826854E4,9.037283E3,1.0283697E4,1.0536972E4,7.289882E3,4.464099E3,4.573184E3,4.990701E3,5.2929956E3,6.3208403E3,4.2161313E3,5.2811973E3,2.0086844E3,2.8543918E3,1.6097074E3,8.5441644E2,3.7187676E3,2.103313E3,2.8873884E3,8.30584E2,4.4624116E3,2.8700415E3,3.4507988E3,2.411564E3,1.8045675E3,3.0848184E3,2.1963792E3,7.271356E2,1.2815487E3,1.6885692E3,1.1658225E3,9.3578876E2,6.739187E2,2.5057994E2,6.0383655E2,2.104619E3,1.6141487E3,1.0967061E2,1.9936423E3,1.1735203E3,1.7138682E3,3.685921E2,4.6199185E2,1.4249572E3,3.0374543E3,1.7112587E3,1.158783E3,1.4570918E3,1.993707E3,9.560432E2,1.4555209E3,1.2658237E3,5.3874384E2,2.4141926E3,6.7062573E2,4.6722632E2,1.7291528E3,5.8632166E2,1.4081398E2,5.5794135E2,7.236074E2,1.4283138E3,2.6025537E2,2.2915799E2,9.3666455E2,2.5427132E2,6.815174E2,3.526131E2,3.213056E2,2.0290051E2,4.7679432E1,2.6643903E2,3.373975E2,4.719109E2,1.6327079E3,1.0627523E3,5.5139636E2,3.4941154E1,7.4729454E1,1.8050182E3,1.8862416E2,4.0787393E2,7.6564624E2,9.1503235E2,7.9883575E2,2.0132727E2,1.6726485E2,4.3768143E2,2.4310406E1,9.3708496E2,4.8787216E2,1.4980046E2,2.887654E3,7.457391E1,1.6366847E3,4.5037225E2,7.0841064E2,7.487757E2,7.083161E2,8.9985205E2,1.0938551E3,5.2360284E2,4.3244037E2,1.006192E3,4.4932883E2,2.5323392E2,1.0125898E3,1.6463142E2,3.7411243E2,1.8674764E3,5.467161E2,3.9892407E2,2.7170166E2,4.584522E2,8.774117E0,1.3476805E3,3.814723E2,4.4106653E2,1.4525513E2,7.957436E1,6.1239616E1,5.176305E2,4.0310852E1,7.1636914E2,7.238276E0],"tree_param":{"num_deleted":"0","num_feature":"208","num_nodes":"127","size_leaf_vector":"1"}},{"base_weights":[2.3793096E-4,-7.094723E-1,7.719057E-1,-2.158714E-1,-1.1426226E0,3.04347E-1,1.4524932E0,-6.3496554E-1,5.7816908E-2,-1.3287818E0,-9.186115E-1,7.437074E-1,-3.583504E-1,9.761873E-1,1.6365709E0,-9.445881E-1,-3.7315315E-1,5.1287764E-1,-1.9893092E-1,-1.4859204E0,-1.0975707E0,-1.1705205E0,-6.8244094E-1,1.0617776E0,4.7954568E-1,-8.936098E-2,-7.1921366E-1,1.2120458E0,4.604028E-1,1.6908661E0,1.2184228E0,-3.8439384E-1,-1.0683128E0,9.7583905E-2,-6.7312765E-1,8.057534E-1,-1.5335126E-1,8.937514E-2,-5.092098E-1,-1.5465703E0,-1.0799526E0,-2.2884364E-1,-1.1711407E0,-1.3072414E0,-7.1705484E-1,-3.651663E-1,-9.406573E-1,1.1723092E0,4.4101867E-1,-5.3056017E-2,6.181112E-1,3.1190747E-1,-3.5573712E-1,-5.160436E-1,-1.2019178E0,8.1162107E-1,1.3063377E0,7.9332703E-1,2.3914577E-1,1.738472E0,1.4832046E0,1.3827866E0,9.1699237E-1,2.3580866E-2,-4.7689203E-2,-1.271642E-2,-5.7126373E-2,2.8917704E-2,-1.3044498E-2,1.3338021E-2,-3.8017415E-2,5.1207718E-2,2.4391918E-2,-2.4924846E-2,1.2276049E-2,-3.1235207E-2,9.909253E-3,-5.154235E-2,-1.063045E-2,-6.871547E-2,-8.265372E-2,-2.6482362E-2,-6.48752E-2,9.965648E-3,-5.856153E-2,-4.0119708E-2,-6.504335E-2,-7.4096695E-2,-5.426457E-2,-1.6929114E-2,-6.2473543E-2,-3.701711E-2,-5.048174E-3,-5.657777E-2,-3.2187354E-2,1.7673237E-2,6.148205E-2,2.7318938E-2,-7.1718045E-2,1.7822722E-2,-3.006624E-2,6.060531E-3,3.7198845E-2,-3.6220524E-2,2.1865785E-2,-3.377655E-2,-7.1573444E-3,-5.916557E-3,-3.889275E-2,-8.622226E-2,-4.8049267E-2,4.426788E-2,-1.8196931E-2,6.911523E-2,5.181552E-2,5.1226385E-2,2.23306E-2,2.0463739E-2,-1.563046E-2,8.380219E-2,9.039942E-2,8.130694E-2,6.620818E-2,7.460793E-2,4.7269404E-2,4.9913984E-2,1.2900515E-2],"categories":[],"categories_nodes":[],"categories_segments":[],"categories_sizes":[],"default_left":[0,0,0,0,0,0,0,0,0,0,0,0,0,0,0,0,0,0,0,0,0,0,0,0,0,0,0,0,0,0,0,0,0,0,0,0,0,0,0,0,0,0,0,0,0,0,0,0,0,0,0,0,0,0,0,0,0,0,0,0,0,0,0,0,0,0,0,0,0,0,0,0,0,0,0,0,0,0,0,0,0,0,0,0,0,0,0,0,0,0,0,0,0,0,0,0,0,0,0,0,0,0,0,0,0,0,0,0,0,0,0,0,0,0,0,0,0,0,0,0,0,0,0,0,0,0,0],"id":1,"left_children":[1,3,5,7,9,11,13,15,17,19,21,23,25,27,29,31,33,35,37,39,41,43,45,47,49,51,53,55,57,59,61,63,65,67,69,71,73,75,77,79,81,83,85,87,89,91,93,95,97,99,101,103,105,107,109,111,113,115,117,119,121,123,125,-1,-1,-1,-1,-1,-1,-1,-1,-1,-1,-1,-1,-1,-1,-1,-1,-1,-1,-1,-1,-1,-1,-1,-1,-1,-1,-1,-1,-1,-1,-1,-1,-1,-1,-1,-1,-1,-1,-1,-1,-1,-1,-1,-1,-1,-1,-1,-1,-1,-1,-1,-1,-1,-1,-1,-1,-1,-1,-1,-1,-1,-1,-1,-1],"loss_changes":[2.0416607E4,4.151541E3,5.68279E3,1.041314E3,4.2986328E2,3.0832598E3,6.358086E2,2.9024207E2,6.418252E2,2.032461E2,2.784922E2,5.3434814E2,4.0966766E2,2.4621631E2,1.16706055E2,1.1327539E2,2.7478513E2,3.868164E2,3.1423544E2,8.07583E1,1.4586621E2,1.3968677E2,1.9837073E2,1.9747632E2,2.5695374E2,2.5880267E2,1.7600385E2,5.1292847E1,4.675551E1,4.2956055E1,2.8548218E1,1.461435E2,8.079236E1,1.3078455E2,9.766394E1,9.493469E1,8.354796E1,1.415734E2,2.6140146E2,5.098535E1,5.181256E1,7.297378E1,9.96626E1,6.5750244E1,1.0593036E2,1.07967865E2,7.489172E1,1.14458496E2,8.7288055E1,1.6174739E2,1.7257849E2,1.25829254E2,9.8752365E1,1.3212292E2,6.518933E1,2.3621613E1,2.1402954E1,1.9787613E1,3.6307053E1,1.2969727E1,1.7380127E1,1.7015808E1,1.1250504E1,0E0,0E0,0E0,0E0,0E0,0E0,0E0,0E0,0E0,0E0,0E0,0E0,0E0,0E0,0E0,0E0,0E0,0E0,0E0,0E0,0E0,0E0,0E0,0E0,0E0,0E0,0E0,0E0,0E0,0E0,0E0,0E0,0E0,0E0,0E0,0E0,0E0,0E0,0E0,0E0,0E0,0E0,0E0,0E0,0E0,0E0,0E0,0E0,0E0,0E0,0E0,0E0,0E0,0E0,0E0,0E0,0E0,0E0,0E0,0E0,0E0,0E0,0E0,0E0],"parents":[2147483647,0,0,1,1,2,2,3,3,4,4,5,5,6,6,7,7,8,8,9,9,10,10,11,11,12,12,13,13,14,14,15,15,16,16,17,17,18,18,19,19,20,20,21,21,22,22,23,23,24,24,25,25,26,26,27,27,28,28,29,29,30,30,31,31,32,32,33,33,34,34,35,35,36,36,37,37,38,38,39,39,40,40,41,41,42,42,43,43,44,44,45,45,46,46,47,47,48,48,49,49,50,50,51,51,52,52,53,53,54,54,55,55,56,56,57,57,58,58,59,59,60,60,61,61,62,62],"right_children":[2,4,6,8,10,12,14,16,18,20,22,24,26,28,30,32,34,36,38,40,42,44,46,48,50,52,54,56,58,60,62,64,66,68,70,72,74,76,78,80,82,84,86,88,90,92,94,96,98,100,102,104,106,108,110,112,114,116,118,120,122,124,126,-1,-1,-1,-1,-1,-1,-1,-1,-1,-1,-1,-1,-1,-1,-1,-1,-1,-1,-1,-1,-1,-1,-1,-1,-1,-1,-1,-1,-1,-1,-1,-1,-1,-1,-1,-1,-1,-1,-1,-1,-1,-1,-1,-1,-1,-1,-1,-1,-1,-1,-1,-1,-1,-1,-1,-1,-1,-1,-1,-1,-1,-1,-1,-1],"split_conditions":[-1.02008246E-1,1.4826089E-1,-1.0580742E-1,9.355851E-3,-1.0086888E0,2.8542015E-1,1.1849143E-2,-4.460096E-1,-5.375355E-1,-3.149409E-1,-3.4050262E-1,-5.375355E-1,9.6153235E-1,-7.4343667E-3,3.8361204E-1,-7.306058E-1,2.9802322E-8,-1.8502973E-1,1.5463111E0,4.148884E-1,-7.1566236E-1,4.496889E-1,5.9520847E-1,-1.8087599E-1,6.3729376E-2,4.4444445E-1,4.96904E-1,-9.706866E-1,-7.598296E-1,1.7545831E-1,-5.069678E-2,-3.6840445E-1,2.4161614E-1,4.7549013E-2,-1.3332486E0,-7.7123433E-1,-7.209596E-1,-8.6600727E-1,-3.4050262E-1,7.1642554E-1,5.971299E-1,1.9974235E0,4.3940336E-1,1.2598263E0,1.0885785E0,-6.0750586E-1,1.4434908E-2,-1.344476E0,1.1810046E0,-2.0350139E-1,-9.6686935E-1,-1.0277044E0,-3.4050262E-1,7.0539635E-1,8.1873786E-1,9.142272E-1,-1.8502973E-1,6.743023E-1,8.289084E-1,1.1735852E0,-7.598296E-1,1.362095E0,9.583333E-1,2.3580866E-2,-4.7689203E-2,-1.271642E-2,-5.7126373E-2,2.8917704E-2,-1.3044498E-2,1.3338021E-2,-3.8017415E-2,5.1207718E-2,2.4391918E-2,-2.4924846E-2,1.2276049E-2,-3.1235207E-2,9.909253E-3,-5.154235E-2,-1.063045E-2,-6.871547E-2,-8.265372E-2,-2.6482362E-2,-6.48752E-2,9.965648E-3,-5.856153E-2,-4.0119708E-2,-6.504335E-2,-7.4096695E-2,-5.426457E-2,-1.6929114E-2,-6.2473543E-2,-3.701711E-2,-5.048174E-3,-5.657777E-2,-3.2187354E-2,1.7673237E-2,6.148205E-2,2.7318938E-2,-7.1718045E-2,1.7822722E-2,-3.006624E-2,6.060531E-3,3.7198845E-2,-3.6220524E-2,2.1865785E-2,-3.377655E-2,-7.1573444E-3,-5.916557E-3,-3.889275E-2,-8.622226E-2,-4.8049267E-2,4.426788E-2,-1.8196931E-2,6.911523E-2,5.181552E-2,5.1226385E-2,2.23306E-2,2.0463739E-2,-1.563046E-2,8.380219E-2,9.039942E-2,8.130694E-2,6.620818E-2,7.460793E-2,4.7269404E-2,4.9913984E-2,1.2900515E-2],"split_indices":[110,107,145,34,110,107,119,161,107,135,25,107,107,107,146,107,34,71,79,132,79,2,107,71,46,0,26,122,146,107,159,15,1,53,133,107,136,187,25,107,107,107,107,95,107,135,6,122,6,19,148,187,25,32,83,18,71,107,107,119,146,146,182,0,0,0,0,0,0,0,0,0,0,0,0,0,0,0,0,0,0,0,0,0,0,0,0,0,0,0,0,0,0,0,0,0,0,0,0,0,0,0,0,0,0,0,0,0,0,0,0,0,0,0,0,0,0,0,0,0,0,0,0,0,0,0,0],"split_type":[0,0,0,0,0,0,0,0,0,0,0,0,0,0,0,0,0,0,0,0,0,0,0,0,0,0,0,0,0,0,0,0,0,0,0,0,0,0,0,0,0,0,0,0,0,0,0,0,0,0,0,0,0,0,0,0,0,0,0,0,0,0,0,0,0,0,0,0,0,0,0,0,0,0,0,0,0,0,0,0,0,0,0,0,0,0,0,0,0,0,0,0,0,0,0,0,0,0,0,0,0,0,0,0,0,0,0,0,0,0,0,0,0,0,0,0,0,0,0,0,0,0,0,0,0,0,0],"sum_hessian":[3.7277664E4,1.9418361E4,1.78593E4,9.076674E3,1.0341688E4,1.0587416E4,7.2718853E3,3.585423E3,5.4912505E3,5.6450894E3,4.696599E3,6.366519E3,4.220897E3,2.0288998E3,5.2429854E3,1.641351E3,1.9440721E3,1.980463E3,3.5107874E3,3.3574192E3,2.28767E3,2.270458E3,2.426141E3,2.886982E3,3.4795374E3,2.419164E3,1.801733E3,1.3911908E3,6.377089E2,4.637534E3,6.0545135E2,2.9781854E2,1.3435323E3,7.568E2,1.1872722E3,1.3756602E3,6.048028E2,1.8200326E3,1.6907548E3,2.9183708E3,4.3904825E2,1.7903741E2,2.1086326E3,1.7428744E3,5.2758356E2,1.0898394E3,1.3363019E3,2.4497354E3,4.3724637E2,7.183447E2,2.7611926E3,9.649776E2,1.4541864E3,1.2696244E3,5.321086E2,2.6719128E2,1.1239995E3,2.5339273E2,3.843162E2,3.7662722E3,8.712618E2,3.8927075E2,2.1618057E2,1.189649E2,1.7885364E2,1.1274312E2,1.2307893E3,3.2311597E2,4.3368402E2,1.005493E2,1.0867229E3,8.139546E2,5.617056E2,3.2423874E2,2.8056406E2,2.3991284E2,1.5801198E3,6.118574E2,1.0788973E3,1.1206536E3,1.7977173E3,1.25495735E2,3.135525E2,1.2357549E2,5.546192E1,5.5083734E2,1.5577953E3,9.7183527E2,7.710391E2,3.094395E2,2.1814401E2,4.494402E2,6.403992E2,8.1143976E2,5.248621E2,1.6087912E2,2.2888564E3,4.147097E2,2.2536684E1,4.1130334E2,3.0704138E2,5.5861475E2,2.202578E3,1.0356756E2,8.6141003E2,5.796245E2,8.7456195E2,5.0473126E2,7.648932E2,1.6584853E2,3.6626007E2,2.5173334E2,1.5457944E1,8.7370905E2,2.5029045E2,1.5067468E2,1.0271805E2,2.9407892E2,9.02373E1,1.9982906E3,1.7679817E3,4.5367755E2,4.1758423E2,3.09292E2,7.997876E1,1.9184885E2,2.4331724E1],"tree_param":{"num_deleted":"0","num_feature":"208","num_nodes":"127","size_leaf_vector":"1"}},{"base_weights":[6.3242204E-4,-6.7577493E-1,7.334796E-1,-2.2436659E-1,-1.104606E0,2.8691298E-1,1.3870896E0,1.2827027E-2,-6.6754204E-1,-1.2232482E0,-7.678478E-1,6.9867647E-1,-3.3114046E-1,9.285956E-1,1.5629987E0,-3.0864912E-1,4.1574606E-1,-9.147852E-1,-3.2058665E-1,-1.3914174E0,-1.0352318E0,-4.0211475E-1,-9.694677E-1,9.934983E-1,4.527732E-1,-7.788611E-2,-6.702363E-1,1.1549295E0,4.1384372E-1,1.6131105E0,1.0813168E0,-7.501611E-1,-3.4671992E-2,7.771142E-1,9.275301E-2,-1.1713635E0,-5.987278E-1,-2.1040264E-1,-7.699669E-1,-1.4984415E0,-1.1929127E0,-9.461606E-1,-1.4371326E0,-6.6165394E-1,1.9976843E-2,-5.989902E-1,-1.1245575E0,1.0812594E0,2.430382E-1,1.3043535E-1,6.8496156E-1,4.018438E-1,-2.6956064E-1,-4.8406768E-1,-1.1150693E0,3.5722363E-1,1.2087821E0,2.2211127E-1,7.152599E-1,1.6557592E0,1.3929068E0,1.2392585E0,7.9463035E-1,-1.6491514E-2,-5.0035506E-2,7.880724E-3,-2.520862E-2,1.1200678E-2,4.4678405E-2,-1.8743293E-2,1.2828124E-2,-5.6651854E-3,-6.159841E-2,-3.5513386E-2,7.288677E-3,-1.1779671E-3,-2.9376043E-2,-4.437251E-2,6.461401E-2,-6.661331E-2,-8.0217026E-2,-7.08661E-2,-4.8853688E-2,-5.1349856E-2,-1.3041747E-2,-3.5330977E-2,-7.776843E-2,-2.8192846E-2,-7.670399E-2,1.9856121E-2,-2.243044E-2,-4.7443444E-3,-5.6040574E-2,3.4546454E-2,-5.7296365E-2,1.2597588E-2,5.607387E-2,1.8229766E-2,-8.278729E-2,2.9001875E-2,-1.0788034E-3,3.8545933E-2,-7.803373E-3,3.1034568E-2,-2.0914141E-2,-3.0313982E-2,-2.5334016E-3,5.77221E-2,-2.7538259E-2,-8.146406E-2,-4.4083975E-2,7.5118057E-3,6.2346704E-2,6.476384E-2,4.5573115E-2,-1.9781352E-3,3.0535826E-2,1.665703E-3,4.2476617E-2,8.457249E-2,7.589931E-2,7.94402E-2,5.984618E-2,3.4576815E-2,6.626367E-2,2.3527127E-2,5.3354573E-2],"categories":[],"categories_nodes":[],"categories_segments":[],"categories_sizes":[],"default_left":[0,0,0,0,0,0,0,0,0,0,0,0,0,0,0,0,0,0,0,0,0,0,0,0,0,0,0,0,0,0,0,0,0,0,0,0,0,0,0,0,0,0,0,0,0,0,0,0,0,0,0,0,0,0,0,0,0,0,0,0,0,0,0,0,0,0,0,0,0,0,0,0,0,0,0,0,0,0,0,0,0,0,0,0,0,0,0,0,0,0,0,0,0,0,0,0,0,0,0,0,0,0,0,0,0,0,0,0,0,0,0,0,0,0,0,0,0,0,0,0,0,0,0,0,0,0,0],"id":2,"left_children":[1,3,5,7,9,11,13,15,17,19,21,23,25,27,29,31,33,35,37,39,41,43,45,47,49,51,53,55,57,59,61,63,65,67,69,71,73,75,77,79,81,83,85,87,89,91,93,95,97,99,101,103,105,107,109,111,113,115,117,119,121,123,125,-1,-1,-1,-1,-1,-1,-1,-1,-1,-1,-1,-1,-1,-1,-1,-1,-1,-1,-1,-1,-1,-1,-1,-1,-1,-1,-1,-1,-1,-1,-1,-1,-1,-1,-1,-1,-1,-1,-1,-1,-1,-1,-1,-1,-1,-1,-1,-1,-1,-1,-1,-1,-1,-1,-1,-1,-1,-1,-1,-1,-1,-1,-1,-1],"loss_changes":[1.8438586E4,3.7440352E3,5.2105586E3,9.908043E2,3.9517383E2,2.6999458E3,5.827549E2,7.954436E2,2.8145728E2,2.3018262E2,1.902439E2,4.6099585E2,3.6417764E2,2.3376941E2,1.2436133E2,4.1305847E2,3.1794772E2,1.546554E2,6.752356E1,8.0112305E1,1.224939E2,1.01001205E2,9.492627E1,1.9023706E2,2.5979742E2,2.2351556E2,1.4947443E2,5.941565E1,3.5356148E1,4.190332E1,2.1296753E1,1.372569E2,1.9049942E2,8.252057E1,1.1041904E2,6.7527954E1,7.1707825E1,7.750059E1,6.6281586E1,4.171582E1,6.425195E1,1.569773E2,5.280896E1,4.761409E1,6.2310646E1,1.2977208E2,4.6370728E1,8.599756E1,7.074637E1,9.956629E1,1.4611719E2,1.24823845E2,1.27918335E2,1.4049243E2,6.2409668E1,1.6223347E1,3.223413E1,3.85453E1,2.1759178E1,1.6610352E1,2.7603027E1,1.38715515E1,1.5185997E1,0E0,0E0,0E0,0E0,0E0,0E0,0E0,0E0,0E0,0E0,0E0,0E0,0E0,0E0,0E0,0E0,0E0,0E0,0E0,0E0,0E0,0E0,0E0,0E0,0E0,0E0,0E0,0E0,0E0,0E0,0E0,0E0,0E0,0E0,0E0,0E0,0E0,0E0,0E0,0E0,0E0,0E0,0E0,0E0,0E0,0E0,0E0,0E0,0E0,0E0,0E0,0E0,0E0,0E0,0E0,0E0,0E0,0E0,0E0,0E0,0E0,0E0,0E0,0E0],"parents":[2147483647,0,0,1,1,2,2,3,3,4,4,5,5,6,6,7,7,8,8,9,9,10,10,11,11,12,12,13,13,14,14,15,15,16,16,17,17,18,18,19,19,20,20,21,21,22,22,23,23,24,24,25,25,26,26,27,27,28,28,29,29,30,30,31,31,32,32,33,33,34,34,35,35,36,36,37,37,38,38,39,39,40,40,41,41,42,42,43,43,44,44,45,45,46,46,47,47,48,48,49,49,50,50,51,51,52,52,53,53,54,54,55,55,56,56,57,57,58,58,59,59,60,60,61,61,62,62],"right_children":[2,4,6,8,10,12,14,16,18,20,22,24,26,28,30,32,34,36,38,40,42,44,46,48,50,52,54,56,58,60,62,64,66,68,70,72,74,76,78,80,82,84,86,88,90,92,94,96,98,100,102,104,106,108,110,112,114,116,118,120,122,124,126,-1,-1,-1,-1,-1,-1,-1,-1,-1,-1,-1,-1,-1,-1,-1,-1,-1,-1,-1,-1,-1,-1,-1,-1,-1,-1,-1,-1,-1,-1,-1,-1,-1,-1,-1,-1,-1,-1,-1,-1,-1,-1,-1,-1,-1,-1,-1,-1,-1,-1,-1,-1,-1,-1,-1,-1,-1,-1,-1,-1,-1,-1,-1,-1],"split_conditions":[-1.02008246E-1,1.7545831E-1,-1.0580742E-1,-1.8502973E-1,2.1761858E-1,2.8542015E-1,1.1849143E-2,-6.2051886E-1,-7.5657684E-1,-5.300361E-1,6.743023E-1,-5.375355E-1,9.6153235E-1,1.1101612E-2,5.3285754E-1,-6.2735385E-1,-4.003762E-1,-5.85129E-1,-5.2032495E-1,-9.5349646E-1,1.3183799E0,8.4356344E-1,-7.0176685E-1,1.5720161E0,2.3642847E-1,-9.8489106E-1,4.96904E-1,-1.5191649E0,-4.7599833E-2,2.8542015E-1,-5.069678E-2,-2.6321694E-1,2.7477548E0,-8.1330127E-1,-7.797658E-1,-1.8322201E0,1.5752625E-1,1.5720161E0,2.391525E0,7.1642554E-1,-3.4050262E-1,9.9488384E-1,-8.1052095E-1,1.2164824E0,5.00341E0,1.6397895E0,1.16914235E-1,-1.4602324E0,-9.784603E-2,-2.2548564E-1,1.3322718E0,4.9826083E-1,-3.4050262E-1,-1.7417877E0,8.1873786E-1,-2.244983E-1,-1.8502973E-1,1.447136E0,1.1735852E0,-2.8721347E-1,-8.1091994E-1,-1.0804654E0,-3.466272E-1,-1.6491514E-2,-5.0035506E-2,7.880724E-3,-2.520862E-2,1.1200678E-2,4.4678405E-2,-1.8743293E-2,1.2828124E-2,-5.6651854E-3,-6.159841E-2,-3.5513386E-2,7.288677E-3,-1.1779671E-3,-2.9376043E-2,-4.437251E-2,6.461401E-2,-6.661331E-2,-8.0217026E-2,-7.08661E-2,-4.8853688E-2,-5.1349856E-2,-1.3041747E-2,-3.5330977E-2,-7.776843E-2,-2.8192846E-2,-7.670399E-2,1.9856121E-2,-2.243044E-2,-4.7443444E-3,-5.6040574E-2,3.4546454E-2,-5.7296365E-2,1.2597588E-2,5.607387E-2,1.8229766E-2,-8.278729E-2,2.9001875E-2,-1.0788034E-3,3.8545933E-2,-7.803373E-3,3.1034568E-2,-2.0914141E-2,-3.0313982E-2,-2.5334016E-3,5.77221E-2,-2.7538259E-2,-8.146406E-2,-4.4083975E-2,7.5118057E-3,6.2346704E-2,6.476384E-2,4.5573115E-2,-1.9781352E-3,3.0535826E-2,1.665703E-3,4.2476617E-2,8.457249E-2,7.589931E-2,7.94402E-2,5.984618E-2,3.4576815E-2,6.626367E-2,2.3527127E-2,5.3354573E-2],"split_indices":[110,107,145,71,158,107,119,188,136,109,107,107,107,107,120,109,107,106,68,136,107,41,79,84,106,1,26,148,148,107,159,107,94,148,200,55,15,84,82,107,25,14,79,31,98,133,27,148,58,71,13,26,25,68,83,69,71,25,93,120,120,2,194,0,0,0,0,0,0,0,0,0,0,0,0,0,0,0,0,0,0,0,0,0,0,0,0,0,0,0,0,0,0,0,0,0,0,0,0,0,0,0,0,0,0,0,0,0,0,0,0,0,0,0,0,0,0,0,0,0,0,0,0,0,0,0,0],"split_type":[0,0,0,0,0,0,0,0,0,0,0,0,0,0,0,0,0,0,0,0,0,0,0,0,0,0,0,0,0,0,0,0,0,0,0,0,0,0,0,0,0,0,0,0,0,0,0,0,0,0,0,0,0,0,0,0,0,0,0,0,0,0,0,0,0,0,0,0,0,0,0,0,0,0,0,0,0,0,0,0,0,0,0,0,0,0,0,0,0,0,0,0,0,0,0,0,0,0,0,0,0,0,0,0,0,0,0,0,0,0,0,0,0,0,0,0,0,0,0,0,0,0,0,0,0,0,0],"sum_hessian":[3.719482E4,1.9342195E4,1.7852625E4,9.4239E3,9.918295E3,1.060711E4,7.245514E3,6.138979E3,3.2849211E3,7.3321875E3,2.5861074E3,6.3659673E3,4.2411436E3,2.0109547E3,5.234559E3,3.4145806E3,2.7243984E3,1.9169572E3,1.367964E3,3.8667163E3,3.465471E3,9.202639E2,1.6658435E3,2.8934563E3,3.4725107E3,2.428751E3,1.8123927E3,1.3957933E3,6.1516144E2,4.7389824E3,4.9557703E2,1.3067157E3,2.107865E3,1.2850052E3,1.4393932E3,1.0563668E3,8.605904E2,1.0999554E3,2.680085E2,2.507656E3,1.3590602E3,2.8397217E3,6.2574945E2,5.6965753E2,3.506064E2,4.931991E2,1.1726444E3,2.59E3,3.0345645E2,1.4548259E3,2.0176848E3,6.929051E2,1.7358458E3,1.279301E3,5.3309174E2,8.887018E1,1.3069232E3,3.772557E2,2.3790572E2,3.964225E3,7.7475726E2,3.1716992E2,1.784071E2,4.8902457E2,8.1769116E2,1.4957312E3,6.121337E2,2.2415547E2,1.0608497E3,3.7292465E2,1.0664686E3,5.7474556E1,9.988922E2,7.4861456E2,1.1197588E2,7.364225E2,3.6353302E2,2.5414821E2,1.3860296E1,9.8170416E2,1.5259519E3,6.633457E2,6.957144E2,2.539531E3,3.001906E2,8.8260376E1,5.374891E2,5.138203E2,5.5837204E1,1.9445964E2,1.5614676E2,2.5155699E2,2.416421E2,1.3223509E1,1.1594209E3,1.2024557E2,2.4697544E3,2.860074E2,1.7449085E1,3.6704977E2,1.0877761E3,1.8307736E3,1.8691129E2,5.47241E2,1.4566403E2,6.829887E2,1.0528572E3,4.934204E1,1.229959E3,1.6442209E2,3.6866965E2,7.313652E1,1.5733658E1,1.00954047E3,2.9738272E2,2.2583005E2,1.5142566E2,3.946463E1,1.9844109E2,3.139041E3,8.2518384E2,3.8365442E2,3.911028E2,4.4433094E1,2.7273685E2,8.289679E1,9.551031E1],"tree_param":{"num_deleted":"0","num_feature":"208","num_nodes":"127","size_leaf_vector":"1"}},{"base_weights":[2.702402E-4,-6.6520965E-1,6.6525674E-1,-2.3634382E-1,-1.0634232E0,2.5070137E-1,1.28463E0,-5.650583E-1,8.5660525E-2,-1.2373257E0,-8.456625E-1,7.417776E-1,-2.2244327E-1,1.4093996E0,9.574151E-1,-3.5586134E-1,-9.2520905E-1,8.5452497E-1,-7.355203E-2,-1.3158715E0,-8.6738676E-1,-6.766483E-1,-1.1553414E0,1.0364813E0,5.06701E-1,4.1949272E-2,-6.1434686E-1,1.1949089E0,1.5168456E0,1.1840056E0,5.936161E-1,-8.2808316E-1,-2.3637745E-1,-1.0276759E0,-2.4946113E-1,3.6332172E-1,1.0815827E0,-8.261382E-1,8.3429046E-2,-1.1385692E0,-1.4750249E0,-4.6421143E-1,-1.1908928E0,-5.8056015E-1,-1.2479463E0,-1.2262708E0,-2.37224E-1,-3.4908034E-2,1.096381E0,6.940366E-1,5.1565357E-2,-2.7383065E-1,3.5019028E-1,-7.7903694E-1,-1.5970047E-1,8.085439E-1,1.3050575E0,1.60247E0,1.4113725E0,1.099349E0,1.5735976E0,3.2408515E-1,8.7253475E-1,1.8189153E-2,-4.631297E-2,7.1041035E-3,-1.9193286E-2,-6.0685106E-2,-3.406296E-2,2.4415772E-2,-3.37686E-2,3.6687523E-2,-2.3002354E-2,4.0236685E-2,7.759487E-2,-6.001646E-2,-2.130184E-3,-4.7010607E-3,2.4010092E-2,-6.948341E-2,-4.849385E-2,-8.175487E-2,-6.789761E-2,3.6545638E-2,-3.390164E-2,8.26573E-2,-6.1255403E-2,9.410927E-3,-3.3235434E-2,-3.4633473E-2,-7.2407685E-2,-7.286726E-2,-4.9356833E-2,-7.2412215E-2,1.9837534E-3,2.823024E-2,-3.5254598E-2,6.895838E-2,4.564824E-2,5.623505E-3,4.2092983E-2,-1.5645046E-2,1.9311095E-2,-2.835135E-2,-1.9549185E-3,-4.3382477E-2,2.091614E-2,-3.8590727E-3,-4.331939E-2,-1.2582138E-2,6.656972E-2,5.014419E-2,9.830085E-3,7.178034E-2,5.416807E-2,8.08193E-2,5.8153864E-2,5.3106677E-2,7.297643E-2,6.365363E-2,4.033498E-2,7.978756E-2,2.8204978E-2,2.5876848E-2,-8.746709E-3,4.8914156E-3,4.7972504E-2],"categories":[],"categories_nodes":[],"categories_segments":[],"categories_sizes":[],"default_left":[0,0,0,0,0,0,0,0,0,0,0,0,0,0,0,0,0,0,0,0,0,0,0,0,0,0,0,0,0,0,0,0,0,0,0,0,0,0,0,0,0,0,0,0,0,0,0,0,0,0,0,0,0,0,0,0,0,0,0,0,0,0,0,0,0,0,0,0,0,0,0,0,0,0,0,0,0,0,0,0,0,0,0,0,0,0,0,0,0,0,0,0,0,0,0,0,0,0,0,0,0,0,0,0,0,0,0,0,0,0,0,0,0,0,0,0,0,0,0,0,0,0,0,0,0,0,0],"id":3,"left_children":[1,3,5,7,9,11,13,15,17,19,21,23,25,27,29,31,33,35,37,39,41,43,45,47,49,51,53,55,57,59,61,63,65,67,69,71,73,75,77,79,81,83,85,87,89,91,93,95,97,99,101,103,105,107,109,111,113,115,117,119,121,123,125,-1,-1,-1,-1,-1,-1,-1,-1,-1,-1,-1,-1,-1,-1,-1,-1,-1,-1,-1,-1,-1,-1,-1,-1,-1,-1,-1,-1,-1,-1,-1,-1,-1,-1,-1,-1,-1,-1,-1,-1,-1,-1,-1,-1,-1,-1,-1,-1,-1,-1,-1,-1,-1,-1,-1,-1,-1,-1,-1,-1,-1,-1,-1,-1],"loss_changes":[1.63556455E4,3.1543652E3,4.74618E3,9.4164996E2,3.6146387E2,2.5736326E3,3.010127E2,3.312085E2,5.5029736E2,1.5330957E2,2.2180664E2,3.7585645E2,5.8462964E2,1.2152344E2,1.6805518E2,1.5691644E2,1.1155762E2,8.5473694E1,4.4011334E2,1.21895996E2,1.2128522E2,1.5038782E2,9.731946E1,1.5484424E2,2.5786023E2,3.280826E2,1.6996722E2,7.512695E1,2.9672852E1,3.9613647E1,5.8891052E1,6.616608E1,1.2429313E2,8.9420044E1,6.769229E1,7.522176E1,6.7101685E1,1.8832828E2,2.1708997E2,8.654712E1,4.075049E1,1.0735825E2,5.240808E1,1.5292859E2,4.2783325E1,7.529883E1,3.674769E1,5.2047626E1,1.1692798E2,1.8405237E2,1.0788391E2,1.1449446E2,1.4184967E2,1.0210535E2,8.328125E1,4.7378296E1,3.8567627E1,9.839355E0,2.5245117E1,5.163684E1,3.8639526E0,3.9017433E1,2.5847504E1,0E0,0E0,0E0,0E0,0E0,0E0,0E0,0E0,0E0,0E0,0E0,0E0,0E0,0E0,0E0,0E0,0E0,0E0,0E0,0E0,0E0,0E0,0E0,0E0,0E0,0E0,0E0,0E0,0E0,0E0,0E0,0E0,0E0,0E0,0E0,0E0,0E0,0E0,0E0,0E0,0E0,0E0,0E0,0E0,0E0,0E0,0E0,0E0,0E0,0E0,0E0,0E0,0E0,0E0,0E0,0E0,0E0,0E0,0E0,0E0,0E0,0E0,0E0,0E0],"parents":[2147483647,0,0,1,1,2,2,3,3,4,4,5,5,6,6,7,7,8,8,9,9,10,10,11,11,12,12,13,13,14,14,15,15,16,16,17,17,18,18,19,19,20,20,21,21,22,22,23,23,24,24,25,25,26,26,27,27,28,28,29,29,30,30,31,31,32,32,33,33,34,34,35,35,36,36,37,37,38,38,39,39,40,40,41,41,42,42,43,43,44,44,45,45,46,46,47,47,48,48,49,49,50,50,51,51,52,52,53,53,54,54,55,55,56,56,57,57,58,58,59,59,60,60,61,61,62,62],"right_children":[2,4,6,8,10,12,14,16,18,20,22,24,26,28,30,32,34,36,38,40,42,44,46,48,50,52,54,56,58,60,62,64,66,68,70,72,74,76,78,80,82,84,86,88,90,92,94,96,98,100,102,104,106,108,110,112,114,116,118,120,122,124,126,-1,-1,-1,-1,-1,-1,-1,-1,-1,-1,-1,-1,-1,-1,-1,-1,-1,-1,-1,-1,-1,-1,-1,-1,-1,-1,-1,-1,-1,-1,-1,-1,-1,-1,-1,-1,-1,-1,-1,-1,-1,-1,-1,-1,-1,-1,-1,-1,-1,-1,-1,-1,-1,-1,-1,-1,-1,-1,-1,-1,-1,-1,-1,-1],"split_conditions":[-1.5435028E-1,1.7545831E-1,-1.0580742E-1,-3.4050262E-1,-9.8886395E-1,1.1101612E-2,-7.4343667E-3,8.487478E-1,-7.7123433E-1,8.7156916E-1,-1.8502973E-1,-4.2508528E-1,8.340573E-1,5.6651586E-1,-3.7279558E-1,-6.669526E-1,1.9936326E0,-2.2016587E0,-2.635497E0,7.1859735E-1,1.3183799E0,1.4780835E0,-1.1574002E-1,-1.5535706E0,-4.3786418E-1,3.781681E-1,-1.1574002E-1,-8.182568E-1,-8.11854E-1,2.8356068E0,3.672402E-1,-4.027177E-1,5.9604645E-8,-8.3408386E-1,-1.7319663E-1,7.9878217E-1,1.0795996E0,9.242671E-1,-6.840072E-1,-7.917705E-1,-1.8695252E0,-8.6965454E-1,-2.1526234E-1,-5.689332E-1,-9.249303E-1,1.2598263E0,1.4901161E-8,-3.3476572E-2,-7.7123433E-1,-9.1659987E-1,9.5692076E-2,-3.9577785E-1,1.4901161E-8,-1.0736624E0,-1.0742079E0,4.7946277E-1,2.7465375E-2,4.4575744E0,-7.8861946E-1,5.971299E-1,1.0920144E0,1.3158462E0,-4.9607766E-1,1.8189153E-2,-4.631297E-2,7.1041035E-3,-1.9193286E-2,-6.0685106E-2,-3.406296E-2,2.4415772E-2,-3.37686E-2,3.6687523E-2,-2.3002354E-2,4.0236685E-2,7.759487E-2,-6.001646E-2,-2.130184E-3,-4.7010607E-3,2.4010092E-2,-6.948341E-2,-4.849385E-2,-8.175487E-2,-6.789761E-2,3.6545638E-2,-3.390164E-2,8.26573E-2,-6.1255403E-2,9.410927E-3,-3.3235434E-2,-3.4633473E-2,-7.2407685E-2,-7.286726E-2,-4.9356833E-2,-7.2412215E-2,1.9837534E-3,2.823024E-2,-3.5254598E-2,6.895838E-2,4.564824E-2,5.623505E-3,4.2092983E-2,-1.5645046E-2,1.9311095E-2,-2.835135E-2,-1.9549185E-3,-4.3382477E-2,2.091614E-2,-3.8590727E-3,-4.331939E-2,-1.2582138E-2,6.656972E-2,5.014419E-2,9.830085E-3,7.178034E-2,5.416807E-2,8.08193E-2,5.8153864E-2,5.3106677E-2,7.297643E-2,6.365363E-2,4.033498E-2,7.978756E-2,2.8204978E-2,2.5876848E-2,-8.746709E-3,4.8914156E-3,4.7972504E-2],"split_indices":[136,107,145,25,136,107,107,198,107,14,71,67,107,145,172,187,87,54,54,107,107,107,54,122,60,132,54,122,107,145,145,53,50,136,23,32,85,163,136,6,54,79,80,79,79,95,49,172,107,122,45,109,49,79,68,120,124,87,185,107,29,84,3,0,0,0,0,0,0,0,0,0,0,0,0,0,0,0,0,0,0,0,0,0,0,0,0,0,0,0,0,0,0,0,0,0,0,0,0,0,0,0,0,0,0,0,0,0,0,0,0,0,0,0,0,0,0,0,0,0,0,0,0,0,0,0,0],"split_type":[0,0,0,0,0,0,0,0,0,0,0,0,0,0,0,0,0,0,0,0,0,0,0,0,0,0,0,0,0,0,0,0,0,0,0,0,0,0,0,0,0,0,0,0,0,0,0,0,0,0,0,0,0,0,0,0,0,0,0,0,0,0,0,0,0,0,0,0,0,0,0,0,0,0,0,0,0,0,0,0,0,0,0,0,0,0,0,0,0,0,0,0,0,0,0,0,0,0,0,0,0,0,0,0,0,0,0,0,0,0,0,0,0,0,0,0,0,0,0,0,0,0,0,0,0,0,0],"sum_hessian":[3.6956977E4,1.847156E4,1.8485416E4,8.894381E3,9.57718E3,1.1074597E4,7.41082E3,4.401112E3,4.493269E3,5.3219536E3,4.2552256E3,5.4341465E3,5.64045E3,5.3624585E3,2.0483613E3,2.7854329E3,1.615679E3,7.701834E2,3.7230857E3,4.387556E3,9.343976E2,2.755085E3,1.5001406E3,2.4095637E3,3.0245828E3,3.3685442E3,2.2719058E3,1.7940695E3,3.5683892E3,1.260645E3,7.8771625E2,5.610995E2,2.2243333E3,1.4023633E3,2.1331569E2,2.4443266E2,5.257508E2,6.4193695E2,3.0811487E3,2.0795981E3,2.3079583E3,4.1719937E2,5.1719824E2,2.3602925E3,3.9479263E2,1.3921455E3,1.0799512E2,1.2751556E2,2.282048E3,2.1421292E3,8.824536E2,1.663819E3,1.7047252E3,1.6670896E3,6.048162E2,4.0005545E2,1.3940139E3,1.9611544E3,1.6072347E3,1.0389618E3,2.2168329E2,4.018815E2,3.8583475E2,4.2417976E1,5.186815E2,6.235762E2,1.6007572E3,9.1058545E2,4.9177777E2,7.793422E1,1.3538147E2,1.687454E2,7.5687256E1,3.32783E2,1.9296777E2,4.3400873E2,2.0792824E2,2.1293447E3,9.5180414E2,8.325355E2,1.2470625E3,9.6909924E2,1.338859E3,6.287613E1,3.5432324E2,5.550978E0,5.1164725E2,2.3262367E2,2.1276687E3,1.0593637E2,2.8885626E2,7.052008E2,6.869447E2,1.9377665E1,8.8617455E1,6.731091E1,6.020464E1,8.950369E2,1.3870112E3,4.3463232E2,1.7074968E3,4.223015E2,4.6015207E2,7.389631E2,9.2485596E2,8.961909E1,1.6151062E3,1.8485185E2,1.4822378E3,5.705348E2,3.4281406E1,3.030204E2,9.703507E1,8.7363416E2,5.203798E2,1.8981327E3,6.302176E1,1.9780951E2,1.4094252E3,6.496326E2,3.8932913E2,2.1625766E2,5.425618E0,2.8972778E2,1.1215373E2,3.925121E1,3.4658356E2],"tree_param":{"num_deleted":"0","num_feature":"208","num_nodes":"127","size_leaf_vector":"1"}},{"base_weights":[1.4180213E-3,-6.324558E-1,6.565768E-1,-2.2655623E-1,-1.0187776E0,3.432071E-1,1.4406232E0,-5.3577375E-1,7.894459E-2,-1.1253395E0,-6.9638044E-1,7.8729504E-1,-1.377248E-1,1.4956739E0,1.0312345E0,-7.267957E-1,-1.7406966E-1,4.855683E-1,-1.885309E-1,-9.580164E-1,-1.2947124E0,-4.850643E-1,-1.0081191E0,1.0422671E0,5.7243574E-1,1.02871485E-1,-5.174279E-1,1.5380824E0,1.31033E0,1.1419051E0,7.002078E-1,-9.5817864E-1,-4.2788222E-1,1.32667E-1,-3.825447E-1,7.0222664E-1,-1.452957E-1,-3.6300693E-2,-8.0020535E-1,-7.223707E-1,-1.1016026E0,-1.1550151E0,-1.4705133E0,-7.848414E-1,-1.472491E-1,-4.9176332E-1,-1.1180259E0,1.310014E0,8.6702347E-1,-9.968606E-2,6.933502E-1,-1.1180112E-1,4.8252305E-1,-2.776649E-1,-8.560983E-1,1.4735336E0,1.608056E0,1.11321E0,1.448829E0,1.2380022E0,8.2750124E-1,9.9006164E-1,4.9904025E-1,-5.3037744E-2,-2.015825E-2,-2.8673528E-2,-3.1051205E-3,-1.1391939E-2,1.8913167E-2,-4.2729136E-2,-9.943302E-3,6.490008E-2,2.891686E-2,-3.9006025E-2,2.2779116E-2,-1.7688809E-2,8.079209E-3,-6.0780954E-2,3.2116917E-3,-8.937671E-3,-4.1312E-2,-6.974893E-2,-4.4894576E-2,-4.9795475E-2,-7.483559E-2,1.1054427E-2,-7.419883E-2,-7.395105E-2,-3.434679E-2,4.5763064E-2,-1.5152429E-2,-1.1488349E-2,-7.2870545E-2,-5.492235E-3,-5.8807652E-2,3.506944E-2,6.818365E-2,5.4006595E-2,2.9087571E-2,-1.2449216E-2,5.2417964E-2,1.9600367E-2,4.252861E-2,-2.114604E-2,4.6590953E-3,3.204662E-2,3.1329065E-3,-6.163593E-3,-4.8132192E-2,-6.9187135E-2,-3.347457E-2,7.446631E-2,5.130101E-2,6.817999E-2,8.135816E-2,5.7210784E-2,2.5185507E-3,7.592118E-2,6.29218E-2,-1.1061052E-2,6.307392E-2,4.9388334E-2,1.3921981E-2,5.517128E-2,-7.3990053E-3,3.3631407E-2,5.990086E-3],"categories":[],"categories_nodes":[],"categories_segments":[],"categories_sizes":[],"default_left":[0,0,0,0,0,0,0,0,0,0,0,0,0,0,0,0,0,0,0,0,0,0,0,0,0,0,0,0,0,0,0,0,0,0,0,0,0,0,0,0,0,0,0,0,0,0,0,0,0,0,0,0,0,0,0,0,0,0,0,0,0,0,0,0,0,0,0,0,0,0,0,0,0,0,0,0,0,0,0,0,0,0,0,0,0,0,0,0,0,0,0,0,0,0,0,0,0,0,0,0,0,0,0,0,0,0,0,0,0,0,0,0,0,0,0,0,0,0,0,0,0,0,0,0,0,0,0],"id":4,"left_children":[1,3,5,7,9,11,13,15,17,19,21,23,25,27,29,31,33,35,37,39,41,43,45,47,49,51,53,55,57,59,61,63,65,67,69,71,73,75,77,79,81,83,85,87,89,91,93,95,97,99,101,103,105,107,109,111,113,115,117,119,121,123,125,-1,-1,-1,-1,-1,-1,-1,-1,-1,-1,-1,-1,-1,-1,-1,-1,-1,-1,-1,-1,-1,-1,-1,-1,-1,-1,-1,-1,-1,-1,-1,-1,-1,-1,-1,-1,-1,-1,-1,-1,-1,-1,-1,-1,-1,-1,-1,-1,-1,-1,-1,-1,-1,-1,-1,-1,-1,-1,-1,-1,-1,-1,-1,-1],"loss_changes":[1.5304125E4,2.93667E3,4.451771E3,8.630392E2,3.2870898E2,2.7656484E3,1.14819336E2,3.1348022E2,4.9997314E2,2.0287598E2,1.5658716E2,3.6806055E2,5.6805786E2,3.3530273E1,2.161084E1,2.0490869E2,1.005097E2,2.4946658E2,2.580802E2,1.2188794E2,8.59624E1,1.4405823E2,5.3947205E1,1.4303882E2,2.9724854E2,3.103101E2,1.954851E2,1.4049805E1,2.1500977E1,1.2679443E1,8.531593E0,9.469763E1,6.903168E1,5.641801E1,8.0836914E1,9.9296936E1,1.7852419E2,1.3963527E2,1.9855579E2,7.756384E1,1.3323877E2,1.06984375E2,3.6465332E1,5.003961E1,1.1132351E2,4.275091E1,4.6223145E1,3.852295E1,1.1247388E2,9.585364E1,1.4635754E2,1.5517845E2,9.135617E1,1.4928282E2,9.7234924E1,1.1924805E1,5.7285156E0,1.1615997E1,4.425415E0,1.2385681E1,9.369385E0,8.417934E0,6.1008053E0,0E0,0E0,0E0,0E0,0E0,0E0,0E0,0E0,0E0,0E0,0E0,0E0,0E0,0E0,0E0,0E0,0E0,0E0,0E0,0E0,0E0,0E0,0E0,0E0,0E0,0E0,0E0,0E0,0E0,0E0,0E0,0E0,0E0,0E0,0E0,0E0,0E0,0E0,0E0,0E0,0E0,0E0,0E0,0E0,0E0,0E0,0E0,0E0,0E0,0E0,0E0,0E0,0E0,0E0,0E0,0E0,0E0,0E0,0E0,0E0,0E0,0E0,0E0,0E0],"parents":[2147483647,0,0,1,1,2,2,3,3,4,4,5,5,6,6,7,7,8,8,9,9,10,10,11,11,12,12,13,13,14,14,15,15,16,16,17,17,18,18,19,19,20,20,21,21,22,22,23,23,24,24,25,25,26,26,27,27,28,28,29,29,30,30,31,31,32,32,33,33,34,34,35,35,36,36,37,37,38,38,39,39,40,40,41,41,42,42,43,43,44,44,45,45,46,46,47,47,48,48,49,49,50,50,51,51,52,52,53,53,54,54,55,55,56,56,57,57,58,58,59,59,60,60,61,61,62,62],"right_children":[2,4,6,8,10,12,14,16,18,20,22,24,26,28,30,32,34,36,38,40,42,44,46,48,50,52,54,56,58,60,62,64,66,68,70,72,74,76,78,80,82,84,86,88,90,92,94,96,98,100,102,104,106,108,110,112,114,116,118,120,122,124,126,-1,-1,-1,-1,-1,-1,-1,-1,-1,-1,-1,-1,-1,-1,-1,-1,-1,-1,-1,-1,-1,-1,-1,-1,-1,-1,-1,-1,-1,-1,-1,-1,-1,-1,-1,-1,-1,-1,-1,-1,-1,-1,-1,-1,-1,-1,-1,-1,-1,-1,-1,-1,-1,-1,-1,-1,-1,-1,-1,-1,-1,-1,-1,-1],"split_conditions":[-1.5743673E-1,1.7545831E-1,1.1849143E-2,-3.4050262E-1,1.9059986E-1,1.1101612E-2,3.8361204E-1,-6.963E-1,-4.003762E-1,7.9932857E-1,1.0885785E0,-4.2508528E-1,8.340573E-1,1.7545831E-1,1.2666919E0,-4.9998823E-1,-6.100772E-1,2.8232746E0,3.0490673E0,3.3473054E-1,1.7941353E0,3.0750704E0,3.75E-1,-8.11854E-1,6.5902814E-2,7.07649E-1,4.5833334E-1,1.1735852E0,1.190273E0,1.7545831E-1,-4.4575462E-1,2.0076544E0,-8.406286E-2,9.355851E-3,3.285113E-2,-1.2010915E0,8.97435E-1,-1.1035367E0,9.2493886E-1,-4.0005985E-1,-3.4050262E-1,1.6745124E0,2.7461332E-1,-1.0025822E0,2.8963193E-1,5.1634336E-1,-8.6562675E-1,-1.3480748E0,1.7933662E0,-2.800735E-1,4.1272116E-1,-5.003296E-1,-1.8502973E-1,1.9974235E0,7.7686954E-1,1.1929654E0,-1.2449445E0,1.2378521E0,-9.4402486E-1,-2.1467197E0,-1.8500923E-1,-3.074659E-1,-1.3422021E0,-5.3037744E-2,-2.015825E-2,-2.8673528E-2,-3.1051205E-3,-1.1391939E-2,1.8913167E-2,-4.2729136E-2,-9.943302E-3,6.490008E-2,2.891686E-2,-3.9006025E-2,2.2779116E-2,-1.7688809E-2,8.079209E-3,-6.0780954E-2,3.2116917E-3,-8.937671E-3,-4.1312E-2,-6.974893E-2,-4.4894576E-2,-4.9795475E-2,-7.483559E-2,1.1054427E-2,-7.419883E-2,-7.395105E-2,-3.434679E-2,4.5763064E-2,-1.5152429E-2,-1.1488349E-2,-7.2870545E-2,-5.492235E-3,-5.8807652E-2,3.506944E-2,6.818365E-2,5.4006595E-2,2.9087571E-2,-1.2449216E-2,5.2417964E-2,1.9600367E-2,4.252861E-2,-2.114604E-2,4.6590953E-3,3.204662E-2,3.1329065E-3,-6.163593E-3,-4.8132192E-2,-6.9187135E-2,-3.347457E-2,7.446631E-2,5.130101E-2,6.817999E-2,8.135816E-2,5.7210784E-2,2.5185507E-3,7.592118E-2,6.29218E-2,-1.1061052E-2,6.307392E-2,4.9388334E-2,1.3921981E-2,5.517128E-2,-7.3990053E-3,3.3631407E-2,5.990086E-3],"split_indices":[110,107,119,25,184,107,120,136,107,107,107,67,107,107,120,106,107,94,94,1,94,93,0,107,45,106,0,119,110,133,133,87,15,34,47,107,189,110,137,15,25,107,30,174,28,18,4,7,87,69,106,109,71,107,83,183,111,17,69,56,153,69,61,0,0,0,0,0,0,0,0,0,0,0,0,0,0,0,0,0,0,0,0,0,0,0,0,0,0,0,0,0,0,0,0,0,0,0,0,0,0,0,0,0,0,0,0,0,0,0,0,0,0,0,0,0,0,0,0,0,0,0,0,0,0,0,0],"split_type":[0,0,0,0,0,0,0,0,0,0,0,0,0,0,0,0,0,0,0,0,0,0,0,0,0,0,0,0,0,0,0,0,0,0,0,0,0,0,0,0,0,0,0,0,0,0,0,0,0,0,0,0,0,0,0,0,0,0,0,0,0,0,0,0,0,0,0,0,0,0,0,0,0,0,0,0,0,0,0,0,0,0,0,0,0,0,0,0,0,0,0,0,0,0,0,0,0,0,0,0,0,0,0,0,0,0,0,0,0,0,0,0,0,0,0,0,0,0,0,0,0,0,0,0,0,0,0],"sum_hessian":[3.6849824E4,1.8729092E4,1.8120732E4,9.134023E3,9.595067E3,1.2947434E4,5.1733E3,4.539187E3,4.594837E3,7.2093584E3,2.385709E3,6.731344E3,6.2160894E3,4.5575464E3,6.157531E2,2.9696042E3,1.5695826E3,1.8230079E3,2.7718289E3,3.6302703E3,3.5790884E3,1.4235881E3,9.621208E2,3.0763477E3,3.6549968E3,3.805332E3,2.410757E3,3.7025332E3,8.550134E2,4.5940936E2,1.5634378E2,1.672452E3,1.2971521E3,6.350683E2,9.345144E2,1.357013E3,4.6599506E2,2.2204404E3,5.5138837E2,1.3770533E3,2.2532168E3,1.9988636E3,1.5802247E3,7.53401E2,6.7018713E2,1.6996901E2,7.921518E2,1.214192E3,1.8621555E3,5.57179E2,3.0978179E3,2.431111E3,1.3742208E3,1.4127268E3,9.980303E2,1.9381389E3,1.7643942E3,3.568635E2,4.9814993E2,3.493693E2,1.10040054E2,6.2242516E1,9.4101265E1,1.4106482E3,2.6180383E2,9.2724664E2,3.6990546E2,2.571979E2,3.778704E2,2.6059952E2,6.7391486E2,2.3183784E2,1.125175E3,2.2653258E2,2.3946246E2,8.5248254E2,1.367958E3,3.722229E2,1.7916548E2,2.2149687E2,1.1555564E3,9.207923E2,1.3324246E3,1.3666925E3,6.321712E2,1.22969675E1,1.5679277E3,9.125421E1,6.621468E2,8.499918E1,5.851879E2,1.3475046E2,3.521856E1,4.343354E1,7.4871826E2,9.966605E1,1.114526E3,1.0640989E3,7.980567E2,4.9382898E2,6.3350067E1,1.0635233E3,2.0342944E3,9.653478E2,1.4657634E3,9.97219E2,3.7700183E2,1.1539537E3,2.5877313E2,2.5893158E2,7.390987E2,1.8696099E3,6.8529045E1,1.3353697E2,1.6308573E3,3.4658215E2,1.0281337E1,3.5931036E2,1.3883955E2,5.3308616E0,3.4403842E2,8.441814E1,2.5621918E1,5.671158E1,5.5309362E0,6.3841805E1,3.0259459E1],"tree_param":{"num_deleted":"0","num_feature":"208","num_nodes":"127","size_leaf_vector":"1"}},{"base_weights":[1.2292807E-3,-5.860663E-1,6.4099E-1,-1.17378026E-1,-9.007723E-1,3.3861342E-1,1.3841702E0,-4.1428426E-1,1.8620543E-1,-6.5705395E-1,-1.0754659E0,7.269864E-1,-1.668685E-1,1.4322857E0,9.30156E-1,-1.1894113E-1,-6.5248865E-1,-1.4545213E-1,5.5625045E-1,-8.9867854E-1,-3.6861864E-1,-1.1802067E0,-7.012632E-1,8.711754E-1,3.7401056E-1,8.325306E-2,-5.0152415E-1,1.4717737E0,1.2451586E0,1.1286019E0,7.255371E-1,3.927328E-2,-5.4223377E-1,-8.5582733E-1,-3.0960763E-1,-4.480763E-1,2.2874953E-1,9.7883385E-1,3.955839E-1,-1.19473E0,-6.795753E-1,-7.0782614E-1,-1.7671815E-1,-1.0974556E0,-1.4714224E0,-5.302967E-1,-1.0715715E0,2.7459738E-1,9.7190875E-1,6.191751E-1,-4.679411E-2,-1.3629347E-1,4.5968425E-1,-3.7425363E-1,-1.1193382E0,1.4087143E0,1.5423423E0,1.0480635E0,1.3875958E0,1.1674721E0,3.7588142E-3,9.993664E-1,4.3170193E-1,1.9871395E-2,-1.2009553E-2,7.187869E-2,-2.9676331E-2,3.248285E-2,-4.4670146E-2,-1.0277981E-2,-4.327047E-2,-3.3466175E-2,1.3353213E-2,4.1326992E-2,1.2467679E-3,-3.4670036E-2,5.2812338E-2,-2.5314344E-2,2.418525E-2,-7.129448E-2,-4.1138705E-2,-4.767032E-2,-1.8085785E-2,8.239647E-2,-3.7356146E-2,6.781567E-4,-4.108791E-2,2.0478629E-2,-5.5919476E-2,-7.444732E-2,9.917442E-2,1.2469447E-2,-3.6580484E-2,-6.440691E-2,-3.120192E-2,2.5402946E-2,-1.3403532E-2,5.499823E-2,3.7042126E-2,-6.5507166E-2,3.268599E-2,-2.4049459E-2,1.1195961E-2,-2.1487001E-2,4.439993E-3,3.0763213E-2,6.2187033E-4,-1.1564105E-2,-4.136208E-2,-6.0910113E-2,3.8084503E-2,7.276094E-2,6.234461E-2,6.7832135E-2,7.797446E-2,5.38522E-2,2.522296E-3,5.1563956E-2,7.2592445E-2,5.9481543E-2,5.8052926E-3,-1.2421099E-3,5.2350517E-2,4.4039634E-4,3.3586346E-2],"categories":[],"categories_nodes":[],"categories_segments":[],"categories_sizes":[],"default_left":[0,0,0,0,0,0,0,0,0,0,0,0,0,0,0,0,0,0,0,0,0,0,0,0,0,0,0,0,0,0,0,0,0,0,0,0,0,0,0,0,0,0,0,0,0,0,0,0,0,0,0,0,0,0,0,0,0,0,0,0,0,0,0,0,0,0,0,0,0,0,0,0,0,0,0,0,0,0,0,0,0,0,0,0,0,0,0,0,0,0,0,0,0,0,0,0,0,0,0,0,0,0,0,0,0,0,0,0,0,0,0,0,0,0,0,0,0,0,0,0,0,0,0,0,0],"id":5,"left_children":[1,3,5,7,9,11,13,15,17,19,21,23,25,27,29,31,33,35,37,39,41,43,45,47,49,51,53,55,57,59,61,63,65,67,69,71,73,75,77,79,81,83,85,87,89,91,93,95,97,99,101,103,105,107,109,111,113,115,117,119,-1,121,123,-1,-1,-1,-1,-1,-1,-1,-1,-1,-1,-1,-1,-1,-1,-1,-1,-1,-1,-1,-1,-1,-1,-1,-1,-1,-1,-1,-1,-1,-1,-1,-1,-1,-1,-1,-1,-1,-1,-1,-1,-1,-1,-1,-1,-1,-1,-1,-1,-1,-1,-1,-1,-1,-1,-1,-1,-1,-1,-1,-1,-1,-1],"loss_changes":[1.3778927E4,2.8200005E3,3.9437266E3,6.925468E2,4.8614453E2,2.4497239E3,1.0931152E2,2.7311493E2,4.663594E2,3.325874E2,2.6006592E2,3.5869092E2,4.5394006E2,3.1792969E1,1.886914E1,1.1630508E2,1.4950037E2,2.2706616E2,1.2140851E2,1.676189E2,1.4170749E2,1.2350537E2,9.166766E1,3.0062476E2,2.1142163E2,2.5659375E2,1.8181049E2,1.4362305E1,2.0937622E1,9.877747E0,1.9058853E1,1.26639725E2,4.8746094E1,7.690082E1,4.6096054E1,1.7560431E2,1.09129814E2,6.4700836E1,1.03800446E2,9.3533325E1,1.2977045E2,7.401941E1,1.711899E2,1.28479E2,7.2411865E1,1.5728741E2,4.356964E1,9.202887E1,1.2578784E2,8.7072876E1,8.886554E1,1.2959735E2,7.9512726E1,1.2436835E2,7.453433E1,1.303833E1,3.239746E0,9.7387085E0,8.892456E0,5.263916E0,0E0,6.245903E0,1.20704E1,0E0,0E0,0E0,0E0,0E0,0E0,0E0,0E0,0E0,0E0,0E0,0E0,0E0,0E0,0E0,0E0,0E0,0E0,0E0,0E0,0E0,0E0,0E0,0E0,0E0,0E0,0E0,0E0,0E0,0E0,0E0,0E0,0E0,0E0,0E0,0E0,0E0,0E0,0E0,0E0,0E0,0E0,0E0,0E0,0E0,0E0,0E0,0E0,0E0,0E0,0E0,0E0,0E0,0E0,0E0,0E0,0E0,0E0,0E0,0E0,0E0,0E0],"parents":[2147483647,0,0,1,1,2,2,3,3,4,4,5,5,6,6,7,7,8,8,9,9,10,10,11,11,12,12,13,13,14,14,15,15,16,16,17,17,18,18,19,19,20,20,21,21,22,22,23,23,24,24,25,25,26,26,27,27,28,28,29,29,30,30,31,31,32,32,33,33,34,34,35,35,36,36,37,37,38,38,39,39,40,40,41,41,42,42,43,43,44,44,45,45,46,46,47,47,48,48,49,49,50,50,51,51,52,52,53,53,54,54,55,55,56,56,57,57,58,58,59,59,61,61,62,62],"right_children":[2,4,6,8,10,12,14,16,18,20,22,24,26,28,30,32,34,36,38,40,42,44,46,48,50,52,54,56,58,60,62,64,66,68,70,72,74,76,78,80,82,84,86,88,90,92,94,96,98,100,102,104,106,108,110,112,114,116,118,120,-1,122,124,-1,-1,-1,-1,-1,-1,-1,-1,-1,-1,-1,-1,-1,-1,-1,-1,-1,-1,-1,-1,-1,-1,-1,-1,-1,-1,-1,-1,-1,-1,-1,-1,-1,-1,-1,-1,-1,-1,-1,-1,-1,-1,-1,-1,-1,-1,-1,-1,-1,-1,-1,-1,-1,-1,-1,-1,-1,-1,-1,-1,-1,-1],"split_conditions":[-1.02008246E-1,1.1101612E-2,1.1849143E-2,-3.4050262E-1,5.597387E-1,1.130942E-1,5.3285754E-1,9.5583874E-1,-6.3088834E-1,-2.6551655E-1,3.9600694E-1,-1.8502973E-1,8.340573E-1,2.3362277E-1,-2.6321694E-1,1.5720161E0,-8.225785E-1,1.8759947E-1,-7.7123433E-1,-3.4050262E-1,-6.1640465E-1,1.549486E0,1.6745124E0,-9.8757E-1,-4.704E-1,7.07649E-1,-8.7288374E-1,1.1735852E0,1.190273E0,2.4507876E-2,9.5251375E-1,-4.704E-1,2.7161384E-1,-1.4511441E0,8.632023E-1,8.949516E-1,-7.7123433E-1,-2.2420056E0,2.5121134E-2,-3.1506062E-1,-1.0643587E0,-3.411206E-1,1.4296995E0,-1.0247393E0,1.914525E0,-8.1052095E-1,-1.3344684E0,3.5943963E-2,-4.003762E-1,-2.834843E0,5.55086E-2,-3.4993786E-1,-1.8502973E-1,4.96904E-1,9.208612E-1,-1.8502973E-1,-1.2056891E0,1.2289113E0,3.672402E-1,1.2872317E0,3.7588142E-3,1.0425993E-1,-1.7375556E0,1.9871395E-2,-1.2009553E-2,7.187869E-2,-2.9676331E-2,3.248285E-2,-4.4670146E-2,-1.0277981E-2,-4.327047E-2,-3.3466175E-2,1.3353213E-2,4.1326992E-2,1.2467679E-3,-3.4670036E-2,5.2812338E-2,-2.5314344E-2,2.418525E-2,-7.129448E-2,-4.1138705E-2,-4.767032E-2,-1.8085785E-2,8.239647E-2,-3.7356146E-2,6.781567E-4,-4.108791E-2,2.0478629E-2,-5.5919476E-2,-7.444732E-2,9.917442E-2,1.2469447E-2,-3.6580484E-2,-6.440691E-2,-3.120192E-2,2.5402946E-2,-1.3403532E-2,5.499823E-2,3.7042126E-2,-6.5507166E-2,3.268599E-2,-2.4049459E-2,1.1195961E-2,-2.1487001E-2,4.439993E-3,3.0763213E-2,6.2187033E-4,-1.1564105E-2,-4.136208E-2,-6.0910113E-2,3.8084503E-2,7.276094E-2,6.234461E-2,6.7832135E-2,7.797446E-2,5.38522E-2,2.522296E-3,5.1563956E-2,7.2592445E-2,5.9481543E-2,5.8052926E-3,-1.2421099E-3,5.2350517E-2,4.4039634E-4,3.3586346E-2],"split_indices":[110,107,119,25,107,107,120,1,188,2,2,71,107,107,107,84,136,200,107,25,109,107,107,174,60,106,68,119,110,68,146,60,43,107,44,49,107,59,45,15,110,93,84,79,83,79,70,120,107,69,45,109,71,26,43,71,111,9,145,35,0,29,70,0,0,0,0,0,0,0,0,0,0,0,0,0,0,0,0,0,0,0,0,0,0,0,0,0,0,0,0,0,0,0,0,0,0,0,0,0,0,0,0,0,0,0,0,0,0,0,0,0,0,0,0,0,0,0,0,0,0,0,0,0,0],"split_type":[0,0,0,0,0,0,0,0,0,0,0,0,0,0,0,0,0,0,0,0,0,0,0,0,0,0,0,0,0,0,0,0,0,0,0,0,0,0,0,0,0,0,0,0,0,0,0,0,0,0,0,0,0,0,0,0,0,0,0,0,0,0,0,0,0,0,0,0,0,0,0,0,0,0,0,0,0,0,0,0,0,0,0,0,0,0,0,0,0,0,0,0,0,0,0,0,0,0,0,0,0,0,0,0,0,0,0,0,0,0,0,0,0,0,0,0,0,0,0,0,0,0,0,0,0],"sum_hessian":[3.667053E4,1.9119188E4,1.7551344E4,7.68126E3,1.1437928E4,1.24766E4,5.0747446E3,3.8833184E3,3.7979414E3,4.7777427E3,6.660185E3,7.0554785E3,5.4211216E3,4.5863213E3,4.8842352E2,1.7345795E3,2.1487388E3,2.0030337E3,1.7949076E3,2.5984978E3,2.1792449E3,5.2017686E3,1.458416E3,5.0079873E3,2.0474912E3,3.1026523E3,2.3184692E3,3.781037E3,8.0528394E2,2.4541138E2,2.4301215E2,1.2631296E3,4.7144992E2,1.3477156E3,8.010232E2,1.1074705E3,8.955632E2,4.9286505E2,1.3020426E3,1.1030931E3,1.4954048E3,7.8624744E2,1.3929974E3,4.054706E3,1.1470629E3,9.9961084E2,4.588052E2,7.2413336E2,4.283854E3,1.2935966E3,7.5389465E2,1.959931E3,1.1427213E3,1.9239089E3,3.945602E2,2.0085732E3,1.7724639E3,3.4162576E2,4.636582E2,2.3648227E2,8.929106E0,1.2436922E2,1.1864292E2,5.535935E2,7.095361E2,1.1174105E1,4.6027582E2,3.235718E1,1.3153584E3,6.760198E2,1.2500346E2,8.4595605E2,2.6151443E2,2.268023E2,6.6876086E2,2.1397524E1,4.714675E2,1.1537393E2,1.1866687E3,6.78391E2,4.247021E2,8.020969E2,6.933079E2,1.21869335E1,7.740605E2,1.0763171E3,3.1668033E2,5.5231934E1,3.999474E3,1.141869E3,5.1937714E0,2.0498154E2,7.946293E2,3.0776987E2,1.5103534E2,5.0648587E2,2.1764752E2,2.7536172E3,1.5302365E3,2.2054176E1,1.2715424E3,2.893696E2,4.6452502E2,8.50586E2,1.109345E3,8.473586E2,2.953627E2,1.4636764E3,4.602326E2,3.752435E2,1.9316729E1,1.553514E3,4.5505923E2,1.570943E2,1.6153696E3,3.31807E2,9.818745E0,7.367856E1,3.8997964E2,2.3137906E2,5.1032224E0,5.456193E0,1.18913025E2,4.3483593E1,7.515933E1],"tree_param":{"num_deleted":"0","num_feature":"208","num_nodes":"125","size_leaf_vector":"1"}},{"base_weights":[-8.687007E-4,-5.809142E-1,6.006427E-1,-2.067078E-1,-9.4052577E-1,2.2687246E-1,1.1826332E0,-5.616582E-1,2.9650886E-2,-1.1700969E0,-7.983146E-1,6.3055795E-1,-2.2902855E-1,7.898716E-1,1.3401752E0,-9.2860985E-1,-3.835982E-1,4.1824415E-1,-1.7243838E-1,-1.25214E0,-7.8409785E-1,-6.389328E-1,-1.0747073E0,8.6585176E-1,3.9102945E-1,-6.603291E-3,-5.152598E-1,9.797419E-1,3.6331514E-1,1.398761E0,1.0095595E0,-4.2730227E-1,-1.0534279E0,1.3961127E-1,-5.688312E-1,6.503797E-1,-9.9350244E-2,-5.0642496E-1,4.2735644E-2,-1.3063602E0,-7.8756994E-1,-3.4277683E-1,-1.0615538E0,-3.9783114E-1,-8.1306803E-1,-7.0212215E-1,-1.229118E0,1.0557805E0,5.871662E-1,-3.0023846E-1,5.021025E-1,-1.2822722E-1,6.494588E-1,-3.3916005E-1,-9.383546E-1,3.9087358E-1,1.0374734E0,1.7530373E-1,7.153811E-1,1.4403175E0,1.2192726E0,1.085339E0,5.723296E-1,-2.8773112E-2,5.1838595E-2,-5.4715913E-2,2.0490393E-2,3.317951E-2,-1.1570661E-2,-3.266617E-2,1.4102743E-4,3.7502654E-2,3.3080752E-3,5.791753E-2,-1.046576E-2,-1.1624678E-2,-4.6831157E-2,1.9820899E-2,-7.879372E-3,-5.6958247E-2,-7.090419E-2,-4.2774666E-2,8.226493E-2,1.3907258E-2,-3.0521015E-2,-9.411539E-4,-6.147475E-2,-4.672676E-2,-1.3540776E-2,-3.3367425E-2,-5.779292E-2,-1.3420509E-2,-4.53294E-2,-2.3636129E-2,-6.483698E-2,4.117793E-2,5.904826E-2,1.1266581E-2,4.086187E-2,2.7129522E-2,-2.6005438E-2,-1.4232325E-2,2.9285494E-2,-1.9362506E-2,3.264072E-3,-2.1515077E-2,4.089949E-2,1.17554385E-2,-2.3923509E-2,-3.7443984E-2,-6.4845435E-2,9.764821E-3,5.586458E-2,5.58979E-2,3.8092747E-2,-1.1359437E-3,2.3937386E-2,4.419441E-2,3.3655583E-3,6.916759E-2,7.504473E-2,6.802593E-2,5.330026E-2,5.8185883E-2,3.636251E-2,4.1230716E-2,1.2896912E-2],"categories":[],"categories_nodes":[],"categories_segments":[],"categories_sizes":[],"default_left":[0,0,0,0,0,0,0,0,0,0,0,0,0,0,0,0,0,0,0,0,0,0,0,0,0,0,0,0,0,0,0,0,0,0,0,0,0,0,0,0,0,0,0,0,0,0,0,0,0,0,0,0,0,0,0,0,0,0,0,0,0,0,0,0,0,0,0,0,0,0,0,0,0,0,0,0,0,0,0,0,0,0,0,0,0,0,0,0,0,0,0,0,0,0,0,0,0,0,0,0,0,0,0,0,0,0,0,0,0,0,0,0,0,0,0,0,0,0,0,0,0,0,0,0,0,0,0],"id":6,"left_children":[1,3,5,7,9,11,13,15,17,19,21,23,25,27,29,31,33,35,37,39,41,43,45,47,49,51,53,55,57,59,61,63,65,67,69,71,73,75,77,79,81,83,85,87,89,91,93,95,97,99,101,103,105,107,109,111,113,115,117,119,121,123,125,-1,-1,-1,-1,-1,-1,-1,-1,-1,-1,-1,-1,-1,-1,-1,-1,-1,-1,-1,-1,-1,-1,-1,-1,-1,-1,-1,-1,-1,-1,-1,-1,-1,-1,-1,-1,-1,-1,-1,-1,-1,-1,-1,-1,-1,-1,-1,-1,-1,-1,-1,-1,-1,-1,-1,-1,-1,-1,-1,-1,-1,-1,-1,-1],"loss_changes":[1.2719759E4,2.497211E3,3.8927217E3,7.6323145E2,3.078418E2,2.0060986E3,4.3177832E2,2.3710681E2,4.2897195E2,1.1337891E2,2.5672388E2,3.253545E2,3.258605E2,1.6199243E2,9.506641E1,7.368286E1,2.3758322E2,2.2467334E2,2.583045E2,7.386572E1,7.749722E1,1.5537329E2,1.2188159E2,1.535227E2,2.2028668E2,2.2998637E2,1.6632465E2,4.662146E1,4.080468E1,2.9595703E1,2.4245178E1,5.2284245E1,5.7335327E1,1.24871025E2,8.7484314E1,7.501666E1,8.02799E1,1.656163E2,1.5497504E2,4.7970703E1,5.3270386E1,4.133625E1,6.823688E1,1.0587572E2,1.0662842E2,5.5386078E1,7.6406494E1,4.9184937E1,9.827911E1,7.3917595E1,1.6269629E2,1.2196503E2,8.241383E1,1.2671738E2,4.3465454E1,1.7500595E1,2.6974365E1,2.4421112E1,2.3348167E1,9.4921875E0,1.5709961E1,1.7E1,8.713955E0,0E0,0E0,0E0,0E0,0E0,0E0,0E0,0E0,0E0,0E0,0E0,0E0,0E0,0E0,0E0,0E0,0E0,0E0,0E0,0E0,0E0,0E0,0E0,0E0,0E0,0E0,0E0,0E0,0E0,0E0,0E0,0E0,0E0,0E0,0E0,0E0,0E0,0E0,0E0,0E0,0E0,0E0,0E0,0E0,0E0,0E0,0E0,0E0,0E0,0E0,0E0,0E0,0E0,0E0,0E0,0E0,0E0,0E0,0E0,0E0,0E0,0E0,0E0,0E0],"parents":[2147483647,0,0,1,1,2,2,3,3,4,4,5,5,6,6,7,7,8,8,9,9,10,10,11,11,12,12,13,13,14,14,15,15,16,16,17,17,18,18,19,19,20,20,21,21,22,22,23,23,24,24,25,25,26,26,27,27,28,28,29,29,30,30,31,31,32,32,33,33,34,34,35,35,36,36,37,37,38,38,39,39,40,40,41,41,42,42,43,43,44,44,45,45,46,46,47,47,48,48,49,49,50,50,51,51,52,52,53,53,54,54,55,55,56,56,57,57,58,58,59,59,60,60,61,61,62,62],"right_children":[2,4,6,8,10,12,14,16,18,20,22,24,26,28,30,32,34,36,38,40,42,44,46,48,50,52,54,56,58,60,62,64,66,68,70,72,74,76,78,80,82,84,86,88,90,92,94,96,98,100,102,104,106,108,110,112,114,116,118,120,122,124,126,-1,-1,-1,-1,-1,-1,-1,-1,-1,-1,-1,-1,-1,-1,-1,-1,-1,-1,-1,-1,-1,-1,-1,-1,-1,-1,-1,-1,-1,-1,-1,-1,-1,-1,-1,-1,-1,-1,-1,-1,-1,-1,-1,-1,-1,-1,-1,-1,-1,-1,-1,-1,-1,-1,-1,-1,-1,-1,-1,-1,-1,-1,-1,-1],"split_conditions":[-1.5743673E-1,1.7545831E-1,-1.0580742E-1,9.355851E-3,-1.1461391E0,1.130942E-1,1.1849143E-2,-7.988906E-1,-5.375355E-1,1.2777821E0,-1.8502973E-1,-5.375355E-1,8.340573E-1,1.1101612E-2,2.0694584E-1,-6.1007726E-1,-4.4196907E-1,-1.8502973E-1,-3.4050262E-1,5.78701E-1,1.8004942E0,5.9520847E-1,4.5833334E-1,-3.891593E-1,-2.3791393E-2,2.8525557E-2,4.96904E-1,-1.4392473E0,8.718954E-2,1.7545831E-1,1.4161346E0,3.7885576E-1,2.0001707E0,4.7549013E-2,-5.2767676E-1,3.0866103E0,-1.80876E-1,1.620991E0,1.4517118E-2,7.1642554E-1,-3.026538E-1,-1.2171421E0,3.1557247E-1,2.7617025E-1,1.9456545E0,9.243548E-1,-1.3782868E0,-2.1345534E-3,-2.3026711E-1,-9.281082E-1,-1.337165E0,-4.0837073E-1,-9.1355413E-1,-1.0538177E0,8.5166734E-1,1.0738827E0,-1.8502973E-1,1.447136E0,4.9826083E-1,1.1735852E0,-8.1091994E-1,2.8542015E-1,8.001338E-1,-2.8773112E-2,5.1838595E-2,-5.4715913E-2,2.0490393E-2,3.317951E-2,-1.1570661E-2,-3.266617E-2,1.4102743E-4,3.7502654E-2,3.3080752E-3,5.791753E-2,-1.046576E-2,-1.1624678E-2,-4.6831157E-2,1.9820899E-2,-7.879372E-3,-5.6958247E-2,-7.090419E-2,-4.2774666E-2,8.226493E-2,1.3907258E-2,-3.0521015E-2,-9.411539E-4,-6.147475E-2,-4.672676E-2,-1.3540776E-2,-3.3367425E-2,-5.779292E-2,-1.3420509E-2,-4.53294E-2,-2.3636129E-2,-6.483698E-2,4.117793E-2,5.904826E-2,1.1266581E-2,4.086187E-2,2.7129522E-2,-2.6005438E-2,-1.4232325E-2,2.9285494E-2,-1.9362506E-2,3.264072E-3,-2.1515077E-2,4.089949E-2,1.17554385E-2,-2.3923509E-2,-3.7443984E-2,-6.4845435E-2,9.764821E-3,5.586458E-2,5.58979E-2,3.8092747E-2,-1.1359437E-3,2.3937386E-2,4.419441E-2,3.3655583E-3,6.916759E-2,7.504473E-2,6.802593E-2,5.330026E-2,5.8185883E-2,3.636251E-2,4.1230716E-2,1.2896912E-2],"split_indices":[110,107,145,34,136,107,119,135,107,170,71,107,107,107,120,185,67,71,25,121,81,107,0,67,99,54,26,122,122,107,120,8,85,53,70,82,19,79,198,107,70,188,28,95,94,107,55,91,81,60,148,109,161,79,55,106,71,25,26,119,120,107,110,0,0,0,0,0,0,0,0,0,0,0,0,0,0,0,0,0,0,0,0,0,0,0,0,0,0,0,0,0,0,0,0,0,0,0,0,0,0,0,0,0,0,0,0,0,0,0,0,0,0,0,0,0,0,0,0,0,0,0,0,0,0,0,0],"split_type":[0,0,0,0,0,0,0,0,0,0,0,0,0,0,0,0,0,0,0,0,0,0,0,0,0,0,0,0,0,0,0,0,0,0,0,0,0,0,0,0,0,0,0,0,0,0,0,0,0,0,0,0,0,0,0,0,0,0,0,0,0,0,0,0,0,0,0,0,0,0,0,0,0,0,0,0,0,0,0,0,0,0,0,0,0,0,0,0,0,0,0,0,0,0,0,0,0,0,0,0,0,0,0,0,0,0,0,0,0,0,0,0,0,0,0,0,0,0,0,0,0,0,0,0,0,0,0],"sum_hessian":[3.645434E4,1.8558414E4,1.7895926E4,9.095562E3,9.462852E3,1.08983E4,6.9976255E3,3.6353064E3,5.4602554E3,3.6166199E3,5.8462314E3,5.7800713E3,5.1182285E3,2.0051968E3,4.9924287E3,1.1861252E3,2.4491812E3,1.8679117E3,3.5923435E3,2.980598E3,6.3602216E2,3.7103394E3,2.135892E3,2.9142808E3,2.8657908E3,2.8809026E3,2.237326E3,1.3865011E3,6.186957E2,4.2379253E3,7.545034E2,2.3749548E2,9.486298E2,6.402986E2,1.8088826E3,1.2895148E3,5.78397E2,1.4072163E3,2.185127E3,2.6672725E3,3.1332538E2,2.4651372E2,3.8950842E2,1.557599E3,2.1527405E3,6.276353E2,1.5082568E3,1.731255E3,1.1830258E3,3.963689E2,2.4694219E3,2.4311594E3,4.4974298E2,1.5812279E3,6.5609796E2,1.2464204E2,1.2618591E3,4.0447733E2,2.1421834E2,3.4350374E3,8.028878E2,6.4159326E2,1.1291014E2,2.1628348E2,2.1211996E1,9.2315265E2,2.5477142E1,2.6522122E2,3.750774E2,1.5759794E3,2.3290329E2,1.1011865E3,1.8832826E2,4.56654E1,5.3273157E2,8.6084247E2,5.463739E2,7.899477E2,1.3951794E3,1.0732435E3,1.5940289E3,3.0548596E2,7.8394094E0,7.412766E1,1.7238606E2,5.426842E1,3.3524E2,2.9670944E2,1.2608895E3,1.5128636E3,6.3987683E2,2.0198578E2,4.2564954E2,1.2454971E2,1.3837072E3,6.09321E2,1.121934E3,4.6077536E2,7.2225037E2,8.161013E1,3.1475876E2,2.3686949E2,2.2325525E3,1.0393898E3,1.3917698E3,6.0429684E1,3.893133E2,3.0842453E2,1.2728033E3,4.3146262E2,2.2463536E2,9.9310646E1,2.533139E1,9.740143E2,2.8784485E2,2.451149E2,1.5936243E2,1.6960144E2,4.4616894E1,1.7834229E3,1.6516145E3,4.1339145E2,3.8949637E2,5.243042E2,1.17289055E2,6.15656E1,5.134454E1],"tree_param":{"num_deleted":"0","num_feature":"208","num_nodes":"127","size_leaf_vector":"1"}},{"base_weights":[1.2557475E-3,-5.352029E-1,5.7022995E-1,-1.6446492E-1,-8.6475295E-1,2.9683933E-1,1.3056835E0,-4.374511E-1,1.0289308E-1,-1.0509495E0,-6.7566013E-1,6.0556126E-1,-2.3384228E-1,1.3565117E0,9.6565586E-1,-6.2874794E-1,-1.05410874E-1,-1.2532292E-1,4.933299E-1,-1.2110219E0,-8.6802E-1,2.8757002E-2,-7.487699E-1,8.480113E-1,3.866317E-1,-4.902019E-1,-3.479464E-3,1.397426E0,1.1803406E0,1.0733486E0,6.3668644E-1,-9.745233E-1,-4.3326235E-1,4.8050871E-1,-2.0854643E-1,-7.2348034E-1,1.7742602E-2,7.364012E-1,1.7448819E-1,-1.2284995E0,-1.4822608E-1,-1.1611725E0,-7.0791125E-1,3.6082068E-1,-8.8958603E-1,-4.5170057E-1,-9.4077045E-1,9.3950367E-1,2.8967834E-1,2.0041049E-1,6.798077E-1,-3.0276814E-1,-8.722453E-1,2.1892905E-1,-2.2981839E-1,1.4459517E0,1.323947E0,1.3077997E0,1.0403262E0,9.133511E-1,1.252032E0,1.0360461E0,4.3372577E-1,-5.2093536E-2,1.1881391E-2,-3.470864E-2,-1.0778774E-2,3.989386E-2,-9.1964165E-3,-7.843293E-3,-4.1703086E-2,-5.6896653E-2,8.075557E-4,2.1268182E-2,-1.1006006E-2,5.8594298E-2,3.0282194E-2,-1.4634338E-2,1.9584658E-2,-5.7644468E-2,-7.023876E-2,-7.692433E-2,7.153224E-2,-6.258515E-2,-2.9522479E-2,-3.6670428E-2,4.677947E-2,-2.7662685E-2,2.885454E-2,-5.806906E-2,8.0619924E-2,7.4977786E-3,-2.9196704E-2,-4.773104E-2,5.3531524E-2,1.38326185E-2,4.9147654E-2,2.0289158E-2,-5.758778E-2,-3.0216828E-2,1.3917714E-2,2.0460682E-2,4.4473138E-2,-2.1413308E-2,4.6619494E-3,-4.985285E-2,2.638848E-2,1.710314E-3,3.2648634E-2,-2.8798496E-2,-3.2039342E-4,6.353358E-2,7.291309E-2,6.6524245E-2,1.3229369E-2,6.617155E-2,2.6988426E-2,4.570893E-2,6.339704E-2,4.8645336E-2,8.162121E-3,4.069679E-2,6.571945E-2,5.750258E-2,3.91858E-3,1.2605496E-2,4.674309E-2],"categories":[],"categories_nodes":[],"categories_segments":[],"categories_sizes":[],"default_left":[0,0,0,0,0,0,0,0,0,0,0,0,0,0,0,0,0,0,0,0,0,0,0,0,0,0,0,0,0,0,0,0,0,0,0,0,0,0,0,0,0,0,0,0,0,0,0,0,0,0,0,0,0,0,0,0,0,0,0,0,0,0,0,0,0,0,0,0,0,0,0,0,0,0,0,0,0,0,0,0,0,0,0,0,0,0,0,0,0,0,0,0,0,0,0,0,0,0,0,0,0,0,0,0,0,0,0,0,0,0,0,0,0,0,0,0,0,0,0,0,0,0,0,0,0,0,0],"id":7,"left_children":[1,3,5,7,9,11,13,15,17,19,21,23,25,27,29,31,33,35,37,39,41,43,45,47,49,51,53,55,57,59,61,63,65,67,69,71,73,75,77,79,81,83,85,87,89,91,93,95,97,99,101,103,105,107,109,111,113,115,117,119,121,123,125,-1,-1,-1,-1,-1,-1,-1,-1,-1,-1,-1,-1,-1,-1,-1,-1,-1,-1,-1,-1,-1,-1,-1,-1,-1,-1,-1,-1,-1,-1,-1,-1,-1,-1,-1,-1,-1,-1,-1,-1,-1,-1,-1,-1,-1,-1,-1,-1,-1,-1,-1,-1,-1,-1,-1,-1,-1,-1,-1,-1,-1,-1,-1,-1],"loss_changes":[1.104764E4,2.2758315E3,3.531166E3,6.400274E2,3.4634912E2,2.0982808E3,8.071875E1,2.754547E2,3.948647E2,1.4418701E2,2.5224121E2,4.293191E2,2.7813745E2,2.7918945E1,2.120575E1,1.8548633E2,9.599667E1,2.3941269E2,1.26471924E2,4.8833984E1,1.0797058E2,1.4091254E2,2.5244775E2,1.9581177E2,2.3217828E2,1.5925317E2,1.2501065E2,9.760742E0,1.2445435E1,1.2003052E1,1.2068962E1,8.1400635E1,9.974094E1,5.0342937E1,4.343165E1,1.6565024E2,2.1901973E2,5.1902954E1,7.203066E1,3.282007E1,9.888714E1,4.1361084E1,6.3710876E1,6.744003E1,8.5259315E1,1.3884882E2,7.604175E1,9.463086E1,9.1164856E1,1.635267E2,9.327875E1,7.448468E1,1.2866089E2,1.0031713E2,9.513609E1,2.2050781E0,8.810303E0,3.9925537E0,9.53891E0,1.0922607E1,4.6679077E0,5.4389534E0,9.246712E0,0E0,0E0,0E0,0E0,0E0,0E0,0E0,0E0,0E0,0E0,0E0,0E0,0E0,0E0,0E0,0E0,0E0,0E0,0E0,0E0,0E0,0E0,0E0,0E0,0E0,0E0,0E0,0E0,0E0,0E0,0E0,0E0,0E0,0E0,0E0,0E0,0E0,0E0,0E0,0E0,0E0,0E0,0E0,0E0,0E0,0E0,0E0,0E0,0E0,0E0,0E0,0E0,0E0,0E0,0E0,0E0,0E0,0E0,0E0,0E0,0E0,0E0,0E0,0E0],"parents":[2147483647,0,0,1,1,2,2,3,3,4,4,5,5,6,6,7,7,8,8,9,9,10,10,11,11,12,12,13,13,14,14,15,15,16,16,17,17,18,18,19,19,20,20,21,21,22,22,23,23,24,24,25,25,26,26,27,27,28,28,29,29,30,30,31,31,32,32,33,33,34,34,35,35,36,36,37,37,38,38,39,39,40,40,41,41,42,42,43,43,44,44,45,45,46,46,47,47,48,48,49,49,50,50,51,51,52,52,53,53,54,54,55,55,56,56,57,57,58,58,59,59,60,60,61,61,62,62],"right_children":[2,4,6,8,10,12,14,16,18,20,22,24,26,28,30,32,34,36,38,40,42,44,46,48,50,52,54,56,58,60,62,64,66,68,70,72,74,76,78,80,82,84,86,88,90,92,94,96,98,100,102,104,106,108,110,112,114,116,118,120,122,124,126,-1,-1,-1,-1,-1,-1,-1,-1,-1,-1,-1,-1,-1,-1,-1,-1,-1,-1,-1,-1,-1,-1,-1,-1,-1,-1,-1,-1,-1,-1,-1,-1,-1,-1,-1,-1,-1,-1,-1,-1,-1,-1,-1,-1,-1,-1,-1,-1,-1,-1,-1,-1,-1,-1,-1,-1,-1,-1,-1,-1,-1,-1,-1,-1],"split_conditions":[-8.4151566E-2,1.4826089E-1,1.1849143E-2,-3.4050262E-1,-5.003296E-1,2.8542015E-1,2.3473735E-1,-7.085907E-1,-7.4409866E-1,9.6968603E-1,-8.1052095E-1,-5.375355E-1,3.571323E-1,1.7545831E-1,1.0588039E0,-4.8614302E-1,-4.4025782E-2,-2.635497E0,-2.6321694E-1,1.7847022E0,-1.1739507E0,1.9974235E0,5.597387E-1,-1.8088065E-1,7.07649E-1,1.1083758E0,8.340573E-1,5.3181094E-1,-8.0511576E-1,-9.265539E-2,-5.007507E-1,2.294891E0,-5.7434684E-1,2.23239E0,1.7103406E0,9.2493886E-1,-4.003762E-1,-2.2687316E-1,-4.8703486E-1,-4.037766E-1,1.733585E-1,1.7907027E0,1.1982194E0,-1.594508E0,-5.1402426E-1,-2.2687316E-1,2.9555187E0,-1.4392473E0,1.1900097E0,-1.5191649E0,-3.4050262E-1,-1.931157E-1,1.0668678E0,2.8525557E-2,5.360286E-1,-1.4681487E-1,3.3967702E0,1.1414582E0,2.5947133E-1,1.0887378E0,5.6555223E-1,5.029067E-1,-2.3791393E-2,-5.2093536E-2,1.1881391E-2,-3.470864E-2,-1.0778774E-2,3.989386E-2,-9.1964165E-3,-7.843293E-3,-4.1703086E-2,-5.6896653E-2,8.075557E-4,2.1268182E-2,-1.1006006E-2,5.8594298E-2,3.0282194E-2,-1.4634338E-2,1.9584658E-2,-5.7644468E-2,-7.023876E-2,-7.692433E-2,7.153224E-2,-6.258515E-2,-2.9522479E-2,-3.6670428E-2,4.677947E-2,-2.7662685E-2,2.885454E-2,-5.806906E-2,8.0619924E-2,7.4977786E-3,-2.9196704E-2,-4.773104E-2,5.3531524E-2,1.38326185E-2,4.9147654E-2,2.0289158E-2,-5.758778E-2,-3.0216828E-2,1.3917714E-2,2.0460682E-2,4.4473138E-2,-2.1413308E-2,4.6619494E-3,-4.985285E-2,2.638848E-2,1.710314E-3,3.2648634E-2,-2.8798496E-2,-3.2039342E-4,6.353358E-2,7.291309E-2,6.6524245E-2,1.3229369E-2,6.617155E-2,2.6988426E-2,4.570893E-2,6.339704E-2,4.8645336E-2,8.162121E-3,4.069679E-2,6.571945E-2,5.750258E-2,3.91858E-3,1.2605496E-2,4.674309E-2],"split_indices":[136,107,119,25,109,107,120,136,136,80,79,107,132,107,120,187,8,54,107,85,136,107,107,73,106,107,107,147,120,200,107,82,132,82,80,137,107,73,18,67,3,96,42,55,69,73,96,122,44,148,25,197,148,54,31,132,96,163,174,35,32,4,125,0,0,0,0,0,0,0,0,0,0,0,0,0,0,0,0,0,0,0,0,0,0,0,0,0,0,0,0,0,0,0,0,0,0,0,0,0,0,0,0,0,0,0,0,0,0,0,0,0,0,0,0,0,0,0,0,0,0,0,0,0,0,0,0],"split_type":[0,0,0,0,0,0,0,0,0,0,0,0,0,0,0,0,0,0,0,0,0,0,0,0,0,0,0,0,0,0,0,0,0,0,0,0,0,0,0,0,0,0,0,0,0,0,0,0,0,0,0,0,0,0,0,0,0,0,0,0,0,0,0,0,0,0,0,0,0,0,0,0,0,0,0,0,0,0,0,0,0,0,0,0,0,0,0,0,0,0,0,0,0,0,0,0,0,0,0,0,0,0,0,0,0,0,0,0,0,0,0,0,0,0,0,0,0,0,0,0,0,0,0,0,0,0,0],"sum_hessian":[3.619233E4,1.8628389E4,1.756394E4,8.767221E3,9.861169E3,1.2805341E4,4.7585977E3,4.337822E3,4.4293994E3,4.966073E3,4.895095E3,8.0957295E3,4.7096113E3,4.136917E3,6.216805E2,2.7514475E3,1.5863741E3,2.7956968E3,1.6337025E3,2.6452122E3,2.320861E3,4.602074E2,4.4348877E3,3.83993E3,4.2558E3,2.2282917E3,2.4813198E3,3.3511416E3,7.857753E2,4.664235E2,1.5525699E2,9.9210815E2,1.7593392E3,2.3675056E2,1.3496235E3,5.389572E2,2.2567397E3,9.2607745E2,7.076251E2,2.6021697E3,4.304259E1,8.1738513E2,1.503476E3,3.385185E2,1.2168892E2,1.7425826E3,2.6923052E3,3.2985454E3,5.413845E2,2.6038782E3,1.6519215E3,1.4962654E3,7.320263E2,1.2513201E3,1.2299998E3,2.0062029E3,1.3449388E3,4.0659E2,3.7918536E2,2.495983E2,2.168252E2,5.0766968E1,1.0449003E2,9.40099E2,5.2009144E1,7.990195E2,9.603198E2,1.6018692E2,7.656365E1,1.2479293E3,1.0169422E2,3.4514935E2,1.9380783E2,8.3147986E2,1.4252598E3,2.1183571E2,7.142417E2,2.2432599E2,4.8329913E2,1.8267339E3,7.7543585E2,2.293569E1,2.0106901E1,7.042979E2,1.13087166E2,1.4811124E3,2.2363434E1,6.438254E1,2.7413596E2,1.1028432E2,1.1404602E1,3.138212E2,1.4287615E3,2.674464E3,1.7840946E1,2.03511E2,3.0950344E3,5.0175677E2,3.9627716E1,2.2921928E2,2.374659E3,7.226511E2,9.292704E2,1.1363253E3,3.5994E2,6.7243756E2,5.9588753E1,8.786769E2,3.7264316E2,4.8167236E2,7.483274E2,1.3902257E2,1.8671803E3,1.3363412E3,8.597639E0,3.976437E2,8.946289E0,2.4748228E2,1.3170308E2,2.3084016E2,1.8758125E1,2.8967365E1,1.8785783E2,4.5093548E1,5.6734195E0,7.794481E1,2.654522E1],"tree_param":{"num_deleted":"0","num_feature":"208","num_nodes":"127","size_leaf_vector":"1"}},{"base_weights":[6.677739E-4,-4.9150124E-1,5.914527E-1,-7.05321E-2,-7.828723E-1,2.4449603E-1,1.0989118E0,-2.8987014E-1,2.8638908E-1,-5.492812E-1,-9.5369214E-1,5.219508E-1,-2.696385E-1,1.2034786E0,8.306285E-1,-9.6839584E-2,-6.3755965E-1,6.4267385E-1,-3.6486287E-2,-7.587197E-1,-2.6737335E-1,-1.0472416E0,-5.8793336E-1,7.954318E-1,3.2700872E-1,-4.0915745E-1,1.5654929E-1,1.0961926E0,1.354165E0,5.4203826E-1,9.988491E-1,6.800091E-3,-8.2846045E-1,-7.270266E-1,1.0143103E-1,9.4309896E-1,4.632893E-1,-4.2466575E-1,9.4508335E-2,-3.1240085E-1,-8.8606906E-1,-6.335094E-1,-1.207625E-1,-9.722718E-1,-1.3126136E0,-3.6334756E-1,-9.175519E-1,9.0995085E-1,3.262819E-1,5.833286E-1,1.0168635E-1,-2.6084158E-1,-7.7325207E-1,-9.077976E-2,2.1265057E-1,1.1653111E0,8.583581E-1,1.4021934E0,1.2363534E0,6.547966E-1,1.7152849E-1,7.911428E-1,1.1557847E0,1.6092807E-2,-1.2463748E-2,-4.774946E-2,2.6690498E-2,8.105467E-2,-3.753088E-2,7.041224E-2,-5.9836768E-3,-4.8117945E-3,5.0011452E-2,2.7554417E-2,-2.7254244E-2,-2.755389E-4,-3.625561E-2,-2.6025137E-2,1.1991434E-2,-3.2155596E-2,4.6119676E-3,-3.356828E-2,-5.9396725E-2,8.627668E-2,-3.3122268E-2,4.0183202E-3,-3.1626087E-2,-4.064029E-2,-5.835217E-2,7.9004295E-2,-6.635936E-2,9.505204E-3,-2.7326716E-2,-4.8615467E-2,8.9559285E-3,7.0057153E-3,4.8203457E-2,2.1455621E-2,-4.1325096E-2,1.4609863E-2,4.2159554E-2,1.6242247E-2,-7.266655E-3,-1.8435003E-2,9.63817E-3,-6.7123845E-2,-2.907672E-2,-1.6953822E-2,1.8943919E-2,5.913964E-2,2.3641666E-2,5.239613E-2,3.0710697E-2,5.1595844E-2,7.0699595E-2,6.494507E-2,4.344518E-2,3.8384646E-2,1.50118945E-2,3.9025202E-2,-2.0867581E-3,2.7469352E-2,4.983918E-2,4.9985413E-2,6.550482E-2],"categories":[],"categories_nodes":[],"categories_segments":[],"categories_sizes":[],"default_left":[0,0,0,0,0,0,0,0,0,0,0,0,0,0,0,0,0,0,0,0,0,0,0,0,0,0,0,0,0,0,0,0,0,0,0,0,0,0,0,0,0,0,0,0,0,0,0,0,0,0,0,0,0,0,0,0,0,0,0,0,0,0,0,0,0,0,0,0,0,0,0,0,0,0,0,0,0,0,0,0,0,0,0,0,0,0,0,0,0,0,0,0,0,0,0,0,0,0,0,0,0,0,0,0,0,0,0,0,0,0,0,0,0,0,0,0,0,0,0,0,0,0,0,0,0],"id":8,"left_children":[1,3,5,7,9,11,13,15,17,19,21,23,25,27,29,31,33,35,37,39,41,43,45,47,49,51,53,55,57,59,61,63,65,67,69,71,73,75,77,79,81,83,85,87,89,91,93,95,97,99,101,103,105,-1,107,109,111,113,115,117,119,121,123,-1,-1,-1,-1,-1,-1,-1,-1,-1,-1,-1,-1,-1,-1,-1,-1,-1,-1,-1,-1,-1,-1,-1,-1,-1,-1,-1,-1,-1,-1,-1,-1,-1,-1,-1,-1,-1,-1,-1,-1,-1,-1,-1,-1,-1,-1,-1,-1,-1,-1,-1,-1,-1,-1,-1,-1,-1,-1,-1,-1,-1,-1],"loss_changes":[1.0478855E4,2.4113403E3,2.883314E3,6.297335E2,4.6291748E2,1.3880072E3,1.8536865E2,3.3424738E2,3.5228296E2,2.8959595E2,2.2878613E2,3.365365E2,2.0288797E2,7.559326E1,9.002173E1,2.4310779E2,1.1770508E2,7.787378E1,8.178461E1,1.59682E2,1.1228964E2,1.047583E2,1.0088168E2,1.4082861E2,2.1306882E2,1.3847244E2,9.3350815E1,4.4815918E1,9.230957E0,2.8654373E1,3.732605E1,2.2664789E2,6.9120636E1,8.9010376E1,5.6003426E1,3.2432648E1,8.1190414E1,5.1029922E1,1.0753326E2,8.400961E1,1.4098291E2,4.189142E1,1.5420972E2,1.2833423E2,5.1539185E1,8.287547E1,3.351764E1,8.776489E1,6.166742E1,1.3025739E2,1.084353E2,8.951198E1,8.0127045E1,0E0,7.5277725E1,2.5495605E1,2.8554565E1,4.420166E0,1.2071716E1,2.083197E1,2.1234253E1,2.4697815E1,1.4576599E1,0E0,0E0,0E0,0E0,0E0,0E0,0E0,0E0,0E0,0E0,0E0,0E0,0E0,0E0,0E0,0E0,0E0,0E0,0E0,0E0,0E0,0E0,0E0,0E0,0E0,0E0,0E0,0E0,0E0,0E0,0E0,0E0,0E0,0E0,0E0,0E0,0E0,0E0,0E0,0E0,0E0,0E0,0E0,0E0,0E0,0E0,0E0,0E0,0E0,0E0,0E0,0E0,0E0,0E0,0E0,0E0,0E0,0E0,0E0,0E0,0E0,0E0],"parents":[2147483647,0,0,1,1,2,2,3,3,4,4,5,5,6,6,7,7,8,8,9,9,10,10,11,11,12,12,13,13,14,14,15,15,16,16,17,17,18,18,19,19,20,20,21,21,22,22,23,23,24,24,25,25,26,26,27,27,28,28,29,29,30,30,31,31,32,32,33,33,34,34,35,35,36,36,37,37,38,38,39,39,40,40,41,41,42,42,43,43,44,44,45,45,46,46,47,47,48,48,49,49,50,50,51,51,52,52,54,54,55,55,56,56,57,57,58,58,59,59,60,60,61,61,62,62],"right_children":[2,4,6,8,10,12,14,16,18,20,22,24,26,28,30,32,34,36,38,40,42,44,46,48,50,52,54,56,58,60,62,64,66,68,70,72,74,76,78,80,82,84,86,88,90,92,94,96,98,100,102,104,106,-1,108,110,112,114,116,118,120,122,124,-1,-1,-1,-1,-1,-1,-1,-1,-1,-1,-1,-1,-1,-1,-1,-1,-1,-1,-1,-1,-1,-1,-1,-1,-1,-1,-1,-1,-1,-1,-1,-1,-1,-1,-1,-1,-1,-1,-1,-1,-1,-1,-1,-1,-1,-1,-1,-1,-1,-1,-1,-1,-1,-1,-1,-1,-1,-1,-1,-1,-1,-1],"split_conditions":[8.848717E-3,1.1101612E-2,-1.0580742E-1,-6.713969E-1,5.597387E-1,4.2257944E-1,-7.4343667E-3,-3.8593635E-1,-4.2508528E-1,-2.0085078E-1,4.6673143E-1,-5.375355E-1,-1.1574002E-1,1.2158835E0,3.8568893E-1,3.6234035E0,4.8339373E-1,-6.746948E-1,4.6269592E-2,3.0580798E-1,-6.669526E-1,1.549486E0,1.5198536E0,-3.535184E-1,-4.844971E-1,1.2573928E0,-2.355045E0,9.8696107E-1,-3.7603313E-1,1.073126E0,1.190273E0,-4.003762E-1,1.7534128E0,-2.0959373E-1,-7.726422E-1,-1.2565913E0,3.0866103E0,-6.175451E-1,-9.301371E-1,-1.553784E0,-4.2508528E-1,-3.411206E-1,-1.8502973E-1,1.8930905E0,-2.355045E0,-1.3154728E0,1.8960997E0,-1.344476E0,3.3096623E0,-3.4050262E-1,-4.2508528E-1,1.5688698E0,-8.3888255E-2,-9.077976E-2,3.0020627E-1,1.4696587E0,5.000407E-1,-1.4771609E0,-2.2390911E-1,2.8841212E-1,-2.268865E-1,-1.6673546E-1,-2.9330826E-1,1.6092807E-2,-1.2463748E-2,-4.774946E-2,2.6690498E-2,8.105467E-2,-3.753088E-2,7.041224E-2,-5.9836768E-3,-4.8117945E-3,5.0011452E-2,2.7554417E-2,-2.7254244E-2,-2.755389E-4,-3.625561E-2,-2.6025137E-2,1.1991434E-2,-3.2155596E-2,4.6119676E-3,-3.356828E-2,-5.9396725E-2,8.627668E-2,-3.3122268E-2,4.0183202E-3,-3.1626087E-2,-4.064029E-2,-5.835217E-2,7.9004295E-2,-6.635936E-2,9.505204E-3,-2.7326716E-2,-4.8615467E-2,8.9559285E-3,7.0057153E-3,4.8203457E-2,2.1455621E-2,-4.1325096E-2,1.4609863E-2,4.2159554E-2,1.6242247E-2,-7.266655E-3,-1.8435003E-2,9.63817E-3,-6.7123845E-2,-2.907672E-2,-1.6953822E-2,1.8943919E-2,5.913964E-2,2.3641666E-2,5.239613E-2,3.0710697E-2,5.1595844E-2,7.0699595E-2,6.494507E-2,4.344518E-2,3.8384646E-2,1.50118945E-2,3.9025202E-2,-2.0867581E-3,2.7469352E-2,4.983918E-2,4.9985413E-2,6.550482E-2],"split_indices":[110,107,145,136,107,107,107,145,67,2,2,107,54,145,145,94,2,107,46,1,187,107,107,67,172,107,61,135,67,135,110,107,1,87,191,174,82,107,122,61,67,93,71,94,61,183,83,122,87,103,67,81,83,0,31,172,134,105,120,172,71,167,122,0,0,0,0,0,0,0,0,0,0,0,0,0,0,0,0,0,0,0,0,0,0,0,0,0,0,0,0,0,0,0,0,0,0,0,0,0,0,0,0,0,0,0,0,0,0,0,0,0,0,0,0,0,0,0,0,0,0,0,0,0,0],"split_type":[0,0,0,0,0,0,0,0,0,0,0,0,0,0,0,0,0,0,0,0,0,0,0,0,0,0,0,0,0,0,0,0,0,0,0,0,0,0,0,0,0,0,0,0,0,0,0,0,0,0,0,0,0,0,0,0,0,0,0,0,0,0,0,0,0,0,0,0,0,0,0,0,0,0,0,0,0,0,0,0,0,0,0,0,0,0,0,0,0,0,0,0,0,0,0,0,0,0,0,0,0,0,0,0,0,0,0,0,0,0,0,0,0,0,0,0,0,0,0,0,0,0,0,0,0],"sum_hessian":[3.603675E4,1.9659164E4,1.6377588E4,8.0419067E3,1.1617257E4,9.72806E3,6.6495283E3,4.9812544E3,3.0606523E3,4.9090615E3,6.708196E3,6.318458E3,3.4096013E3,4.781873E3,1.8676549E3,3.2040137E3,1.7772408E3,1.4547224E3,1.6059299E3,2.815379E3,2.0936826E3,5.340205E3,1.3679908E3,2.628036E3,3.690422E3,2.5689062E3,8.406951E2,2.7984014E3,1.9834718E3,6.895377E2,1.1781172E3,2.8072056E3,3.9680804E2,1.585448E3,1.9179285E2,5.420712E2,9.126511E2,4.0482474E2,1.2011051E3,6.259306E2,2.1894482E3,5.975067E2,1.496176E3,4.1678057E3,1.1723992E3,8.1505695E2,5.5293396E2,2.111474E3,5.165618E2,1.7255061E3,1.964916E3,1.8267578E3,7.421484E2,2.233683E1,8.183583E2,2.1649214E3,6.3348004E2,1.400697E3,5.827749E2,5.2785645E2,1.6168129E2,5.0991565E2,6.6820154E2,1.2587119E3,1.5484937E3,3.634252E2,3.338284E1,1.5054461E1,1.5703936E3,2.7042767E1,1.6475009E2,2.8117144E1,5.139541E2,8.400599E2,7.259126E1,1.6958571E2,2.3523903E2,2.2893939E2,9.721658E2,3.4424124E2,2.8168936E2,1.2815173E3,9.0793097E2,6.487822E0,5.9101886E2,1.074521E3,4.2165503E2,2.2947246E3,1.8730809E3,5.304184E0,1.1670951E3,2.0254266E2,6.125143E2,5.2683344E2,2.610051E1,1.3904103E2,1.972433E3,4.7491315E2,4.1648666E1,8.149753E2,9.105309E2,1.0323635E3,9.325525E2,1.4761626E3,3.5059518E2,1.8533884E2,5.568095E2,1.8909413E2,6.2926416E2,2.1107817E3,5.4139458E1,3.5451596E2,2.7896408E2,4.6247086E1,1.3544498E3,4.956049E2,8.716998E1,3.9927472E2,1.2858173E2,4.136692E1,1.2031437E2,2.3628813E2,2.7362753E2,3.362415E2,3.3196008E2],"tree_param":{"num_deleted":"0","num_feature":"208","num_nodes":"125","size_leaf_vector":"1"}},{"base_weights":[-1.4716213E-3,-5.3256863E-1,5.030269E-1,-8.332837E-2,-7.606783E-1,2.523568E-1,1.2138242E0,-4.1505122E-1,1.3320786E-1,-5.80171E-1,-9.6300256E-1,6.1975557E-1,-1.3289285E-1,1.2731155E0,8.7720925E-1,-2.8430867E-1,-1.0279222E0,3.1365216E-1,-2.855834E-1,-8.4025186E-1,-3.444708E-1,-1.0625858E0,-6.696443E-1,7.557871E-1,2.8414342E-1,-3.9776018E-1,8.4504314E-2,1.3083589E0,1.0675681E0,9.9704385E-1,5.863017E-1,4.6494958E-1,-3.5867998E-1,-1.0863298E0,5.918948E-2,7.352257E-1,1.60136E-1,-5.170791E-1,-2.847237E-4,-9.365697E-1,1.0906131E-1,-5.8721244E-1,-1.9748235E-1,-1.2488152E0,-9.023371E-1,-4.4784912E-1,-9.7343487E-1,1.8312322E-1,8.2810014E-1,5.3212523E-1,-1.1280983E-1,-2.3473202E-1,-7.6007277E-1,3.8268343E-1,-1.3716978E-1,1.2462808E0,1.3760021E0,1.0820677E0,-1.3591423E-4,1.0279106E0,2.136659E-1,9.315668E-1,3.781363E-1,3.5981663E-2,-5.6202363E-2,-6.4468975E-3,-2.8266627E-2,-6.0178705E-2,8.4090896E-4,3.9367285E-2,-4.2150762E-2,-7.360954E-3,2.6103932E-2,-3.1866144E-2,1.7621528E-2,1.1314494E-2,-1.8035818E-2,-5.5711318E-2,-3.4809943E-2,-5.659491E-2,1.5733581E-2,2.2410901E-2,-3.3464726E-2,-3.130253E-2,-3.5514386E-4,-6.3849956E-2,-3.6865827E-2,-3.733836E-2,-5.725623E-2,-4.8398203E-3,-3.8751792E-2,1.0730455E-2,-5.2337077E-2,2.156162E-2,-1.8574743E-2,5.020705E-2,3.3525623E-2,3.4644514E-2,1.450293E-3,-2.4181282E-2,6.279573E-3,-3.3588987E-2,-6.4839846E-3,-4.338452E-2,2.5560234E-2,2.402508E-2,-1.7448856E-2,-1.7562822E-2,6.2071863E-3,6.665181E-2,5.802677E-2,5.712344E-2,6.997382E-2,4.7325503E-2,6.0913887E-2,5.346874E-2,2.7452221E-2,-2.719602E-2,5.1138815E-2,5.470546E-2,5.230067E-3,7.026618E-5,2.8398199E-2],"categories":[],"categories_nodes":[],"categories_segments":[],"categories_sizes":[],"default_left":[0,0,0,0,0,0,0,0,0,0,0,0,0,0,0,0,0,0,0,0,0,0,0,0,0,0,0,0,0,0,0,0,0,0,0,0,0,0,0,0,0,0,0,0,0,0,0,0,0,0,0,0,0,0,0,0,0,0,0,0,0,0,0,0,0,0,0,0,0,0,0,0,0,0,0,0,0,0,0,0,0,0,0,0,0,0,0,0,0,0,0,0,0,0,0,0,0,0,0,0,0,0,0,0,0,0,0,0,0,0,0,0,0,0,0,0,0,0,0,0,0,0,0],"id":9,"left_children":[1,3,5,7,9,11,13,15,17,19,21,23,25,27,29,31,33,35,37,39,41,43,45,47,49,51,53,55,57,59,61,63,65,67,-1,69,71,73,75,77,79,81,83,85,87,89,91,93,95,97,99,101,103,105,107,109,111,113,-1,115,117,119,121,-1,-1,-1,-1,-1,-1,-1,-1,-1,-1,-1,-1,-1,-1,-1,-1,-1,-1,-1,-1,-1,-1,-1,-1,-1,-1,-1,-1,-1,-1,-1,-1,-1,-1,-1,-1,-1,-1,-1,-1,-1,-1,-1,-1,-1,-1,-1,-1,-1,-1,-1,-1,-1,-1,-1,-1,-1,-1,-1,-1],"loss_changes":[9.583979E3,1.785544E3,3.267995E3,4.2169696E2,4.213545E2,1.9198083E3,9.4112305E1,1.8536508E2,2.6850885E2,3.7417285E2,1.5825098E2,3.1663452E2,3.8132513E2,2.7803223E1,2.434491E1,1.0672649E2,5.3871918E1,1.6048991E2,7.061264E1,2.657246E2,1.14246155E2,1.1996582E2,9.263983E1,2.0429102E2,1.9738776E2,1.7604529E2,2.4048459E2,1.2568848E1,9.43158E0,1.194043E1,1.4799088E1,7.078264E1,8.2490265E1,5.1516724E1,0E0,5.5143707E1,2.0276367E2,6.1988617E1,3.933232E1,1.11643555E2,6.873504E1,1.0306857E2,1.6307059E2,2.5917969E1,8.162488E1,9.192076E1,5.106299E1,7.656845E1,1.2081079E2,9.9709625E1,6.828089E1,9.443149E1,1.2713049E2,1.11212616E2,1.16805626E2,1.17248535E1,7.17749E0,9.5737915E0,0E0,8.948181E0,1.3258156E1,1.0400009E1,9.562111E0,0E0,0E0,0E0,0E0,0E0,0E0,0E0,0E0,0E0,0E0,0E0,0E0,0E0,0E0,0E0,0E0,0E0,0E0,0E0,0E0,0E0,0E0,0E0,0E0,0E0,0E0,0E0,0E0,0E0,0E0,0E0,0E0,0E0,0E0,0E0,0E0,0E0,0E0,0E0,0E0,0E0,0E0,0E0,0E0,0E0,0E0,0E0,0E0,0E0,0E0,0E0,0E0,0E0,0E0,0E0,0E0,0E0,0E0,0E0,0E0],"parents":[2147483647,0,0,1,1,2,2,3,3,4,4,5,5,6,6,7,7,8,8,9,9,10,10,11,11,12,12,13,13,14,14,15,15,16,16,17,17,18,18,19,19,20,20,21,21,22,22,23,23,24,24,25,25,26,26,27,27,28,28,29,29,30,30,31,31,32,32,33,33,35,35,36,36,37,37,38,38,39,39,40,40,41,41,42,42,43,43,44,44,45,45,46,46,47,47,48,48,49,49,50,50,51,51,52,52,53,53,54,54,55,55,56,56,57,57,59,59,60,60,61,61,62,62],"right_children":[2,4,6,8,10,12,14,16,18,20,22,24,26,28,30,32,34,36,38,40,42,44,46,48,50,52,54,56,58,60,62,64,66,68,-1,70,72,74,76,78,80,82,84,86,88,90,92,94,96,98,100,102,104,106,108,110,112,114,-1,116,118,120,122,-1,-1,-1,-1,-1,-1,-1,-1,-1,-1,-1,-1,-1,-1,-1,-1,-1,-1,-1,-1,-1,-1,-1,-1,-1,-1,-1,-1,-1,-1,-1,-1,-1,-1,-1,-1,-1,-1,-1,-1,-1,-1,-1,-1,-1,-1,-1,-1,-1,-1,-1,-1,-1,-1,-1,-1,-1,-1,-1,-1],"split_conditions":[-2.6244947E-1,-1.2605765E-1,1.1849143E-2,9.355851E-3,5.971299E-1,1.1101612E-2,2.3473735E-1,1.7886946E0,-1.8502973E-1,9.668497E-1,8.7156916E-1,-1.8502973E-1,2.3642847E-1,3.5419488E-1,1.0588039E0,-1.2484518E0,3.9564278E-2,-7.7123433E-1,-8.1890345E-1,8.42554E-1,-3.4050262E-1,-1.1643703E0,1.549486E0,-1.1810149E0,-4.704E-1,9.6153235E-1,5.597387E-1,1.1735852E0,2.2579682E0,9.9407643E-1,-4.4937244E-1,8.6882055E-1,2.9802322E-8,3.903764E-1,5.918948E-2,8.394836E-2,5.9604645E-8,-4.78096E-1,1.4930418E0,-5.003296E-1,-7.140486E-1,3.9401022E-1,-5.274327E-1,7.149439E-1,1.8930905E0,-8.740181E-1,-5.107332E-1,1.4300807E-1,-6.7550534E-1,2.294891E0,5.55086E-2,-1.1993572E0,1.1017241E0,1.3480506E0,1.190273E0,-2.1893385E-1,-1.2056891E0,1.1735852E0,-1.3591423E-4,1.0887378E0,1.5073594E0,-4.037766E-1,9.801191E-2,3.5981663E-2,-5.6202363E-2,-6.4468975E-3,-2.8266627E-2,-6.0178705E-2,8.4090896E-4,3.9367285E-2,-4.2150762E-2,-7.360954E-3,2.6103932E-2,-3.1866144E-2,1.7621528E-2,1.1314494E-2,-1.8035818E-2,-5.5711318E-2,-3.4809943E-2,-5.659491E-2,1.5733581E-2,2.2410901E-2,-3.3464726E-2,-3.130253E-2,-3.5514386E-4,-6.3849956E-2,-3.6865827E-2,-3.733836E-2,-5.725623E-2,-4.8398203E-3,-3.8751792E-2,1.0730455E-2,-5.2337077E-2,2.156162E-2,-1.8574743E-2,5.020705E-2,3.3525623E-2,3.4644514E-2,1.450293E-3,-2.4181282E-2,6.279573E-3,-3.3588987E-2,-6.4839846E-3,-4.338452E-2,2.5560234E-2,2.402508E-2,-1.7448856E-2,-1.7562822E-2,6.2071863E-3,6.665181E-2,5.802677E-2,5.712344E-2,6.997382E-2,4.7325503E-2,6.0913887E-2,5.346874E-2,2.7452221E-2,-2.719602E-2,5.1138815E-2,5.470546E-2,5.230067E-3,7.026618E-5,2.8398199E-2],"split_indices":[110,107,119,34,107,107,120,83,71,80,14,71,106,107,120,107,23,107,110,14,103,110,107,148,60,107,107,119,133,159,133,28,34,17,0,3,39,54,85,109,4,28,18,173,94,1,94,120,107,82,45,109,148,143,110,71,111,119,0,35,96,67,49,0,0,0,0,0,0,0,0,0,0,0,0,0,0,0,0,0,0,0,0,0,0,0,0,0,0,0,0,0,0,0,0,0,0,0,0,0,0,0,0,0,0,0,0,0,0,0,0,0,0,0,0,0,0,0,0,0,0,0,0],"split_type":[0,0,0,0,0,0,0,0,0,0,0,0,0,0,0,0,0,0,0,0,0,0,0,0,0,0,0,0,0,0,0,0,0,0,0,0,0,0,0,0,0,0,0,0,0,0,0,0,0,0,0,0,0,0,0,0,0,0,0,0,0,0,0,0,0,0,0,0,0,0,0,0,0,0,0,0,0,0,0,0,0,0,0,0,0,0,0,0,0,0,0,0,0,0,0,0,0,0,0,0,0,0,0,0,0,0,0,0,0,0,0,0,0,0,0,0,0,0,0,0,0,0,0],"sum_hessian":[3.576742E4,1.7424451E4,1.834297E4,5.8686006E3,1.155585E4,1.3561767E4,4.781204E3,2.3176382E3,3.5509624E3,6.109506E3,5.4463438E3,6.94153E3,6.6202373E3,4.0625476E3,7.186563E2,1.9114907E3,4.0614743E2,2.4820242E3,1.0689382E3,2.9031106E3,3.2063955E3,4.0638638E3,1.38248E3,4.93835E3,2.0031796E3,2.9841309E3,3.6361062E3,3.4629363E3,5.996114E2,5.0702472E2,2.116316E2,1.7200632E2,1.7394844E3,3.962375E2,9.909933E0,6.6137366E2,1.8206506E3,5.894702E2,4.7946802E2,2.6357998E3,2.6731082E2,1.2079203E3,1.9984751E3,1.876137E3,2.1877268E3,8.0069904E2,5.817809E2,5.5422546E2,4.3841245E3,1.2328892E3,7.702904E2,2.059397E3,9.247338E2,1.5503792E3,2.085727E3,1.8166477E3,1.6462885E3,5.916781E2,7.9332895E0,4.8738107E2,1.964366E1,7.811454E1,1.3351706E2,1.4877136E2,2.3234951E1,8.2472253E2,9.1476184E2,3.5817023E2,3.8067272E1,6.4077704E2,2.0596624E1,9.847423E2,8.359083E2,5.181919E2,7.12783E1,2.9445953E2,1.8500848E2,1.5132869E3,1.122513E3,3.728515E1,2.3002568E2,8.830551E1,1.1196149E3,6.138369E2,1.3846382E3,1.7765554E3,9.958165E1,1.3360923E3,8.5163434E2,3.870345E2,4.1366455E2,3.362038E1,5.481605E2,3.8320218E2,1.710233E2,2.0679814E3,2.3161433E3,9.338985E2,2.9899066E2,3.011948E2,4.690956E2,3.9785593E2,1.6615411E3,8.5292706E2,7.180678E1,1.3679703E3,1.824087E2,1.1464841E3,9.39243E2,8.9519495E2,9.2145276E2,1.5529285E2,1.4909956E3,3.0090103E2,2.9077707E2,4.4721545E2,4.0165604E1,1.0250278E1,9.393381E0,6.491195E1,1.3202593E1,4.5249443E1,8.826762E1],"tree_param":{"num_deleted":"0","num_feature":"208","num_nodes":"123","size_leaf_vector":"1"}},{"base_weights":[-2.6008135E-3,-4.5551446E-1,5.4117924E-1,-1.0125267E-1,-7.52886E-1,2.868377E-1,1.173746E0,2.6115808E-1,-2.9729033E-1,-9.28627E-1,-5.652682E-1,6.2831545E-1,-7.918738E-2,1.2353361E0,7.943934E-1,2.6587E-2,6.206552E-1,-4.7411022E-1,2.8009268E-2,-1.1119432E0,-7.6258945E-1,-3.1348172E-1,-7.432738E-1,8.3209294E-1,4.6019828E-1,1.5930165E-1,-3.4369504E-1,1.276917E0,1.0592151E0,9.374877E-1,5.5738807E-1,-5.127706E-1,1.8344644E-1,7.9457676E-1,2.390059E-1,-2.2260994E-1,-6.723146E-1,-4.2522752E-1,1.4948882E-1,-1.1649795E0,-7.823387E-1,-5.989873E-1,-1.0998311E0,9.191464E-2,-4.8719746E-1,-1.5402988E-1,-8.4955883E-1,-2.1881915E-3,8.8418424E-1,-1.22399434E-1,5.5655456E-1,3.242706E-1,-2.2420545E-1,-5.084994E-1,8.166288E-2,1.3274333E0,1.1808667E0,1.2449898E0,9.337894E-1,1.1332363E0,7.427763E-1,7.058287E-1,1.4895481E-1,-4.912712E-2,-3.752951E-3,2.2942929E-2,-4.805121E-3,4.1492708E-2,-4.64587E-2,4.30137E-2,1.535896E-4,-2.1129994E-2,6.6252257E-4,-3.7406065E-2,9.578224E-3,2.5156481E-2,-2.5685195E-2,1.6445415E-2,-1.0831845E-2,2.22861E-2,-5.8685284E-2,-4.47084E-2,4.8500006E-3,-3.5410937E-2,-1.1943973E-2,-6.710869E-2,-4.3879982E-2,-2.3849977E-2,2.058747E-2,-3.0415429E-2,9.751934E-4,6.364893E-3,-4.2184602E-2,-4.332819E-2,6.2036205E-2,1.8514354E-2,-3.569245E-2,5.741423E-2,3.900147E-2,-4.236511E-2,5.6569623E-3,3.527129E-2,1.2409597E-2,2.831774E-3,2.7598754E-2,2.202535E-2,-1.9096075E-2,8.46819E-3,-2.9500538E-2,-9.088492E-3,2.6211932E-2,6.271602E-2,6.87333E-2,4.6193253E-2,6.1020494E-2,6.341888E-2,1.33225E-2,5.108718E-2,3.1010544E-2,5.836625E-2,2.0168891E-2,4.3356042E-2,7.2914064E-3,3.9682664E-2,8.426632E-3,2.2950782E-2,-1.3209837E-2],"categories":[],"categories_nodes":[],"categories_segments":[],"categories_sizes":[],"default_left":[0,0,0,0,0,0,0,0,0,0,0,0,0,0,0,0,0,0,0,0,0,0,0,0,0,0,0,0,0,0,0,0,0,0,0,0,0,0,0,0,0,0,0,0,0,0,0,0,0,0,0,0,0,0,0,0,0,0,0,0,0,0,0,0,0,0,0,0,0,0,0,0,0,0,0,0,0,0,0,0,0,0,0,0,0,0,0,0,0,0,0,0,0,0,0,0,0,0,0,0,0,0,0,0,0,0,0,0,0,0,0,0,0,0,0,0,0,0,0,0,0,0,0,0,0,0,0],"id":10,"left_children":[1,3,5,7,9,11,13,15,17,19,21,23,25,27,29,31,33,35,37,39,41,43,45,47,49,51,53,55,57,59,61,63,65,67,69,71,73,75,77,79,81,83,85,87,89,91,93,95,97,99,101,103,105,107,109,111,113,115,117,119,121,123,125,-1,-1,-1,-1,-1,-1,-1,-1,-1,-1,-1,-1,-1,-1,-1,-1,-1,-1,-1,-1,-1,-1,-1,-1,-1,-1,-1,-1,-1,-1,-1,-1,-1,-1,-1,-1,-1,-1,-1,-1,-1,-1,-1,-1,-1,-1,-1,-1,-1,-1,-1,-1,-1,-1,-1,-1,-1,-1,-1,-1,-1,-1,-1,-1],"loss_changes":[8.736661E3,2.0387329E3,2.5929912E3,6.2766547E2,3.4624316E2,1.4372922E3,1.068125E2,2.614402E2,3.2982938E2,1.6426611E2,2.2786584E2,2.0329028E2,3.502114E2,2.7520508E1,2.1326752E1,1.5893945E2,8.0974396E1,1.8492474E2,1.112376E2,4.3971436E1,1.5659338E2,1.4873137E2,1.8651831E2,1.1689697E2,1.8324182E2,1.8477713E2,1.8460458E2,1.37578125E1,1.6455872E1,1.4320587E1,1.4780144E1,8.68449E1,1.121564E2,5.1868225E1,5.63273E1,7.735179E1,1.3619513E2,3.5331665E1,1.0477203E2,3.178418E1,3.563861E1,7.540112E1,4.8719604E1,1.1552051E2,9.076666E1,8.88533E1,9.081958E1,4.2403866E1,6.850281E1,7.933251E1,1.2824744E2,1.2434047E2,9.225704E1,1.0498392E2,8.59092E1,5.2473145E0,1.0001099E1,6.4931946E0,1.1924438E1,4.3150024E0,1.4993256E1,8.2949295E0,8.757955E0,0E0,0E0,0E0,0E0,0E0,0E0,0E0,0E0,0E0,0E0,0E0,0E0,0E0,0E0,0E0,0E0,0E0,0E0,0E0,0E0,0E0,0E0,0E0,0E0,0E0,0E0,0E0,0E0,0E0,0E0,0E0,0E0,0E0,0E0,0E0,0E0,0E0,0E0,0E0,0E0,0E0,0E0,0E0,0E0,0E0,0E0,0E0,0E0,0E0,0E0,0E0,0E0,0E0,0E0,0E0,0E0,0E0,0E0,0E0,0E0,0E0,0E0,0E0,0E0],"parents":[2147483647,0,0,1,1,2,2,3,3,4,4,5,5,6,6,7,7,8,8,9,9,10,10,11,11,12,12,13,13,14,14,15,15,16,16,17,17,18,18,19,19,20,20,21,21,22,22,23,23,24,24,25,25,26,26,27,27,28,28,29,29,30,30,31,31,32,32,33,33,34,34,35,35,36,36,37,37,38,38,39,39,40,40,41,41,42,42,43,43,44,44,45,45,46,46,47,47,48,48,49,49,50,50,51,51,52,52,53,53,54,54,55,55,56,56,57,57,58,58,59,59,60,60,61,61,62,62],"right_children":[2,4,6,8,10,12,14,16,18,20,22,24,26,28,30,32,34,36,38,40,42,44,46,48,50,52,54,56,58,60,62,64,66,68,70,72,74,76,78,80,82,84,86,88,90,92,94,96,98,100,102,104,106,108,110,112,114,116,118,120,122,124,126,-1,-1,-1,-1,-1,-1,-1,-1,-1,-1,-1,-1,-1,-1,-1,-1,-1,-1,-1,-1,-1,-1,-1,-1,-1,-1,-1,-1,-1,-1,-1,-1,-1,-1,-1,-1,-1,-1,-1,-1,-1,-1,-1,-1,-1,-1,-1,-1,-1,-1,-1,-1,-1,-1,-1,-1,-1,-1,-1,-1,-1,-1,-1,-1],"split_conditions":[8.848717E-3,1.1125988E-1,1.1849143E-2,-4.419273E-1,-3.7635866E-1,1.1101612E-2,2.9090056E-1,-4.4196907E-1,-4.0559795E-1,-1.0997208E0,5.597387E-1,-4.2508528E-1,6.990734E-1,1.7545831E-1,-5.069678E-2,7.6969045E-1,6.780956E-1,-8.1797713E-1,-9.301371E-1,3.6326635E-1,4.96904E-1,1.4661793E0,-7.1566236E-1,-1.5535706E0,6.3729376E-2,-1.8502973E-1,-1.1574002E-1,5.794185E-1,-9.348111E-1,-4.419273E-1,8.333333E-1,7.816933E-1,-3.655089E-1,1.170793E0,-6.746948E-1,1.1125988E-1,9.493776E-1,-1.041718E0,1.4866261E0,2.74463E-1,1.7907027E0,3.993746E-1,1.3203023E-1,1.1576113E0,2.505187E-1,1.9974235E0,2.9555187E0,1.170527E-1,-1.041718E0,2.1250376E-1,2.1817024E0,-3.1523928E-1,-1.6548523E0,-1.0736624E0,3.371205E-1,1.190273E0,3.768742E-2,2.2080934E0,9.7408897E-1,3.5379455E0,1.3813535E0,5.9604645E-8,1.2282753E0,-4.912712E-2,-3.752951E-3,2.2942929E-2,-4.805121E-3,4.1492708E-2,-4.64587E-2,4.30137E-2,1.535896E-4,-2.1129994E-2,6.6252257E-4,-3.7406065E-2,9.578224E-3,2.5156481E-2,-2.5685195E-2,1.6445415E-2,-1.0831845E-2,2.22861E-2,-5.8685284E-2,-4.47084E-2,4.8500006E-3,-3.5410937E-2,-1.1943973E-2,-6.710869E-2,-4.3879982E-2,-2.3849977E-2,2.058747E-2,-3.0415429E-2,9.751934E-4,6.364893E-3,-4.2184602E-2,-4.332819E-2,6.2036205E-2,1.8514354E-2,-3.569245E-2,5.741423E-2,3.900147E-2,-4.236511E-2,5.6569623E-3,3.527129E-2,1.2409597E-2,2.831774E-3,2.7598754E-2,2.202535E-2,-1.9096075E-2,8.46819E-3,-2.9500538E-2,-9.088492E-3,2.6211932E-2,6.271602E-2,6.87333E-2,4.6193253E-2,6.1020494E-2,6.341888E-2,1.33225E-2,5.108718E-2,3.1010544E-2,5.836625E-2,2.0168891E-2,4.3356042E-2,7.2914064E-3,3.9682664E-2,8.426632E-3,2.2950782E-2,-1.3209837E-2],"split_indices":[110,107,119,67,161,107,120,119,188,110,107,67,107,107,159,96,172,68,122,106,26,83,79,122,46,71,54,161,120,67,182,189,107,29,107,81,200,107,84,28,96,158,41,95,184,107,96,172,107,29,82,122,59,79,147,110,158,34,161,94,120,40,84,0,0,0,0,0,0,0,0,0,0,0,0,0,0,0,0,0,0,0,0,0,0,0,0,0,0,0,0,0,0,0,0,0,0,0,0,0,0,0,0,0,0,0,0,0,0,0,0,0,0,0,0,0,0,0,0,0,0,0,0,0,0,0,0],"split_type":[0,0,0,0,0,0,0,0,0,0,0,0,0,0,0,0,0,0,0,0,0,0,0,0,0,0,0,0,0,0,0,0,0,0,0,0,0,0,0,0,0,0,0,0,0,0,0,0,0,0,0,0,0,0,0,0,0,0,0,0,0,0,0,0,0,0,0,0,0,0,0,0,0,0,0,0,0,0,0,0,0,0,0,0,0,0,0,0,0,0,0,0,0,0,0,0,0,0,0,0,0,0,0,0,0,0,0,0,0,0,0,0,0,0,0,0,0,0,0,0,0,0,0,0,0,0,0],"sum_hessian":[3.547176E4,1.9353012E4,1.611875E4,8.832473E3,1.0520539E4,1.1497474E4,4.6212764E3,3.1002544E3,5.732218E3,5.4298916E3,5.0906475E3,5.9479644E3,5.5495093E3,3.973616E3,6.4766034E2,1.8769202E3,1.2233342E3,3.713537E3,2.0186808E3,2.5776736E3,2.8522183E3,2.1097527E3,2.9808948E3,2.6867578E3,3.2612068E3,2.9182954E3,2.6312139E3,3.2091438E3,7.644722E2,4.017327E2,2.4592763E2,4.2221997E2,1.4547002E3,8.394459E2,3.8388828E2,1.637875E3,2.075662E3,4.2599222E2,1.5926886E3,2.2179492E3,3.5972443E2,1.9226012E3,9.2961694E2,6.328292E2,1.4769236E3,4.5603415E2,2.5248606E3,1.5784189E2,2.528916E3,4.626407E2,2.7985662E3,2.0408297E3,8.7746576E2,1.8964692E3,7.3474457E2,2.0939805E3,1.1151633E3,3.0419266E2,4.6027954E2,1.9767311E2,2.040596E2,1.7965938E2,6.6268234E1,2.0294118E2,2.192788E2,7.326289E2,7.220713E2,8.231758E2,1.6270098E1,1.0481541E2,2.7907288E2,8.8613696E2,7.5173804E2,1.908443E3,1.6721901E2,3.6560154E1,3.8943207E2,1.069135E3,5.235536E2,1.1619864E1,2.2063293E3,3.1922415E2,4.0500267E1,1.474191E3,4.484102E2,4.4206107E2,4.8755588E2,2.2744737E2,4.0538187E2,1.1920082E3,2.849154E2,3.2438223E2,1.3165192E2,2.5051143E3,1.9746326E1,1.0383499E2,5.4006897E1,7.121551E2,1.8167609E3,1.1292517E2,3.497155E2,1.8862911E3,9.122749E2,9.3893243E2,1.1018973E3,1.6780501E2,7.096607E2,2.0332E2,1.6931493E3,4.6081732E2,2.7392725E2,8.3348065E2,1.2604999E3,1.522891E2,9.6287427E2,2.9670285E2,7.4897923E0,3.5744446E2,1.02835106E2,1.8814903E2,9.524074E0,1.683683E2,3.5691296E1,1.538486E2,2.5810783E1,3.7932095E1,2.8336142E1],"tree_param":{"num_deleted":"0","num_feature":"208","num_nodes":"127","size_leaf_vector":"1"}},{"base_weights":[-5.2670826E-4,-4.259865E-1,5.359171E-1,-4.5914713E-2,-6.9575626E-1,2.2135931E-1,1.0002735E0,1.4415807E-1,-3.6947608E-1,-8.8651097E-1,-5.127327E-1,5.174527E-1,-1.5347771E-1,1.0995576E0,7.5033337E-1,3.251637E-1,-1.9463779E-1,-4.5952308E-1,3.3814245E-1,-1.1030128E0,-7.6080585E-1,-3.0112836E-1,-6.9179475E-1,-9.7780995E-2,5.7772774E-1,5.3932485E-3,-5.0186676E-1,9.8683894E-1,1.2245398E0,4.9020502E-1,9.005729E-1,5.667038E-1,6.638321E-2,-4.1233712E-1,2.3168327E-2,-6.6519314E-1,-1.728862E-1,5.6784254E-1,-5.036059E-1,-1.2319343E0,-9.720062E-1,-5.920618E-1,-1.041985E0,2.662846E-1,-4.0854067E-1,-1.328314E-1,-7.976778E-1,-1.029937E0,8.713025E-2,7.087318E-1,2.3141086E-1,4.0966523E-1,-1.4167853E-1,1.7467836E-1,-6.2489855E-1,7.428576E-1,1.0521218E0,7.273067E-1,1.2384295E0,3.2513088E-1,7.718562E-1,5.288933E-1,9.9374837E-1,1.7600521E-2,3.7940953E-2,-2.3335414E-2,9.995047E-3,-2.7515072E-2,7.650236E-3,9.635822E-3,-1.6679075E-2,-1.1462365E-2,-3.7926983E-2,5.7575805E-3,-1.9222034E-2,3.3694584E-2,-8.126329E-2,4.8206776E-2,-3.8809426E-2,-6.3021034E-2,-2.7686447E-2,-6.1720528E-2,-3.926747E-2,-4.505636E-2,-2.1979433E-2,-5.729256E-2,-2.1815158E-2,-1.653509E-2,3.3797268E-2,5.0055455E-2,-2.2376629E-2,6.8930923E-3,-4.0147346E-2,-4.1418444E-2,1.01471655E-2,-6.524815E-2,2.491093E-2,3.0016726E-2,-9.852499E-3,-4.451159E-2,3.6512002E-2,3.4917083E-2,1.710869E-3,-7.288282E-3,3.27777E-2,-2.2290235E-2,3.4274478E-3,-6.7345137E-3,7.440954E-2,-3.39476E-2,5.3923126E-2,4.15642E-2,1.3903515E-2,5.5812728E-2,4.1272484E-2,1.7078453E-3,5.0003495E-2,6.614724E-2,5.8436938E-2,2.487004E-2,-7.405276E-4,5.5356234E-2,3.055918E-2,-4.449035E-2,3.1611696E-2,5.4198068E-2,3.238028E-2],"categories":[],"categories_nodes":[],"categories_segments":[],"categories_sizes":[],"default_left":[0,0,0,0,0,0,0,0,0,0,0,0,0,0,0,0,0,0,0,0,0,0,0,0,0,0,0,0,0,0,0,0,0,0,0,0,0,0,0,0,0,0,0,0,0,0,0,0,0,0,0,0,0,0,0,0,0,0,0,0,0,0,0,0,0,0,0,0,0,0,0,0,0,0,0,0,0,0,0,0,0,0,0,0,0,0,0,0,0,0,0,0,0,0,0,0,0,0,0,0,0,0,0,0,0,0,0,0,0,0,0,0,0,0,0,0,0,0,0,0,0,0,0,0,0,0,0],"id":11,"left_children":[1,3,5,7,9,11,13,15,17,19,21,23,25,27,29,31,33,35,37,39,41,43,45,47,49,51,53,55,57,59,61,63,65,67,69,71,73,75,77,79,81,83,85,87,89,91,93,95,97,99,101,103,105,107,109,111,113,115,117,119,121,123,125,-1,-1,-1,-1,-1,-1,-1,-1,-1,-1,-1,-1,-1,-1,-1,-1,-1,-1,-1,-1,-1,-1,-1,-1,-1,-1,-1,-1,-1,-1,-1,-1,-1,-1,-1,-1,-1,-1,-1,-1,-1,-1,-1,-1,-1,-1,-1,-1,-1,-1,-1,-1,-1,-1,-1,-1,-1,-1,-1,-1,-1,-1,-1,-1],"loss_changes":[8.017279E3,2.0085186E3,2.269107E3,5.003033E2,3.9941602E2,1.0282935E3,1.5468262E2,3.1432132E2,1.9198764E2,1.5161523E2,2.2134607E2,1.9204712E2,2.2637253E2,6.179541E1,6.926428E1,2.0870038E2,8.4678665E1,1.5727063E2,6.60874E1,3.3336426E1,1.6774658E2,1.6366364E2,1.872721E2,7.991307E1,2.1363086E2,1.6710683E2,1.0676782E2,3.6713135E1,1.3569336E1,3.0173065E1,3.8504944E1,7.087305E1,1.14948814E2,6.976897E1,5.4059353E1,6.2992554E1,6.816453E1,6.330786E1,3.0091091E1,1.9077759E1,4.9068848E1,1.0419318E2,8.304932E1,1.0482357E2,1.2443512E2,9.192961E1,8.200391E1,3.2981514E1,5.6573513E1,1.1824536E2,1.1919649E2,1.02546585E2,1.3179794E2,8.069034E1,1.0050885E2,2.0331818E1,2.5971191E1,1.1268459E1,1.0363037E1,2.4417774E1,1.2172836E1,3.4130196E1,2.7331482E1,0E0,0E0,0E0,0E0,0E0,0E0,0E0,0E0,0E0,0E0,0E0,0E0,0E0,0E0,0E0,0E0,0E0,0E0,0E0,0E0,0E0,0E0,0E0,0E0,0E0,0E0,0E0,0E0,0E0,0E0,0E0,0E0,0E0,0E0,0E0,0E0,0E0,0E0,0E0,0E0,0E0,0E0,0E0,0E0,0E0,0E0,0E0,0E0,0E0,0E0,0E0,0E0,0E0,0E0,0E0,0E0,0E0,0E0,0E0,0E0,0E0,0E0,0E0,0E0],"parents":[2147483647,0,0,1,1,2,2,3,3,4,4,5,5,6,6,7,7,8,8,9,9,10,10,11,11,12,12,13,13,14,14,15,15,16,16,17,17,18,18,19,19,20,20,21,21,22,22,23,23,24,24,25,25,26,26,27,27,28,28,29,29,30,30,31,31,32,32,33,33,34,34,35,35,36,36,37,37,38,38,39,39,40,40,41,41,42,42,43,43,44,44,45,45,46,46,47,47,48,48,49,49,50,50,51,51,52,52,53,53,54,54,55,55,56,56,57,57,58,58,59,59,60,60,61,61,62,62],"right_children":[2,4,6,8,10,12,14,16,18,20,22,24,26,28,30,32,34,36,38,40,42,44,46,48,50,52,54,56,58,60,62,64,66,68,70,72,74,76,78,80,82,84,86,88,90,92,94,96,98,100,102,104,106,108,110,112,114,116,118,120,122,124,126,-1,-1,-1,-1,-1,-1,-1,-1,-1,-1,-1,-1,-1,-1,-1,-1,-1,-1,-1,-1,-1,-1,-1,-1,-1,-1,-1,-1,-1,-1,-1,-1,-1,-1,-1,-1,-1,-1,-1,-1,-1,-1,-1,-1,-1,-1,-1,-1,-1,-1,-1,-1,-1,-1,-1,-1,-1,-1,-1,-1,-1,-1,-1,-1],"split_conditions":[6.4708464E-2,1.1101612E-2,-1.0580742E-1,7.682132E-1,-5.003296E-1,1.7545831E-1,-7.4343667E-3,-1.8502973E-1,9.493776E-1,-1.1551493E0,5.597387E-1,-1.1053933E0,1.1083758E0,1.7291966E-1,3.8568893E-1,-4.003762E-1,-7.9044014E-1,-8.3408386E-1,4.780804E0,-5.9583366E-1,-4.037766E-1,-2.268865E-1,-7.1566236E-1,6.1441886E-1,-4.704E-1,-1.0547601E0,-1.4576744E0,-8.7963426E-1,2.6397038E-1,8.718954E-2,-1.3197407E0,4.7575164E-1,-1.2190639E0,4.7490692E-1,1.5720161E0,-4.445056E-1,-4.2508528E-1,1.3259349E0,-1.7369341E0,1.417301E0,-1.7645383E0,-2.3794888E-2,1.3648276E0,-1.5679044E0,-9.5053464E-1,1.9974235E0,3.8440388E-1,-6.062505E-1,7.382163E-1,-2.0896943E0,-4.419273E-1,3.6219332E-1,-3.4050262E-1,-6.6910887E-1,1.5815037E0,5.126582E-1,-1.8502973E-1,-4.387501E-1,-1.041718E0,1.3158462E0,2.3272738E-1,-2.1834466E0,-1.7352481E-1,1.7600521E-2,3.7940953E-2,-2.3335414E-2,9.995047E-3,-2.7515072E-2,7.650236E-3,9.635822E-3,-1.6679075E-2,-1.1462365E-2,-3.7926983E-2,5.7575805E-3,-1.9222034E-2,3.3694584E-2,-8.126329E-2,4.8206776E-2,-3.8809426E-2,-6.3021034E-2,-2.7686447E-2,-6.1720528E-2,-3.926747E-2,-4.505636E-2,-2.1979433E-2,-5.729256E-2,-2.1815158E-2,-1.653509E-2,3.3797268E-2,5.0055455E-2,-2.2376629E-2,6.8930923E-3,-4.0147346E-2,-4.1418444E-2,1.01471655E-2,-6.524815E-2,2.491093E-2,3.0016726E-2,-9.852499E-3,-4.451159E-2,3.6512002E-2,3.4917083E-2,1.710869E-3,-7.288282E-3,3.27777E-2,-2.2290235E-2,3.4274478E-3,-6.7345137E-3,7.440954E-2,-3.39476E-2,5.3923126E-2,4.15642E-2,1.3903515E-2,5.5812728E-2,4.1272484E-2,1.7078453E-3,5.0003495E-2,6.614724E-2,5.8436938E-2,2.487004E-2,-7.405276E-4,5.5356234E-2,3.055918E-2,-4.449035E-2,3.1611696E-2,5.4198068E-2,3.238028E-2],"split_indices":[110,107,145,146,109,107,107,71,200,136,107,200,107,123,145,107,110,136,100,5,67,71,79,97,60,1,68,122,145,122,137,189,110,2,84,67,67,81,61,163,70,97,118,61,79,107,22,68,35,68,67,31,25,111,162,120,71,122,107,84,107,55,198,0,0,0,0,0,0,0,0,0,0,0,0,0,0,0,0,0,0,0,0,0,0,0,0,0,0,0,0,0,0,0,0,0,0,0,0,0,0,0,0,0,0,0,0,0,0,0,0,0,0,0,0,0,0,0,0,0,0,0,0,0,0,0,0],"split_type":[0,0,0,0,0,0,0,0,0,0,0,0,0,0,0,0,0,0,0,0,0,0,0,0,0,0,0,0,0,0,0,0,0,0,0,0,0,0,0,0,0,0,0,0,0,0,0,0,0,0,0,0,0,0,0,0,0,0,0,0,0,0,0,0,0,0,0,0,0,0,0,0,0,0,0,0,0,0,0,0,0,0,0,0,0,0,0,0,0,0,0,0,0,0,0,0,0,0,0,0,0,0,0,0,0,0,0,0,0,0,0,0,0,0,0,0,0,0,0,0,0,0,0,0,0,0,0],"sum_hessian":[3.5125305E4,1.9589242E4,1.55360625E4,8.132753E3,1.1456489E4,9.262966E3,6.2730967E3,5.1233433E3,3.0094094E3,5.607614E3,5.8488755E3,5.1749927E3,4.0879734E3,4.48694E3,1.7861566E3,3.3395076E3,1.7838356E3,2.6701191E3,3.392903E2,2.056734E3,3.55088E3,2.682319E3,3.1665564E3,4.6155637E2,4.713436E3,2.8081223E3,1.2798511E3,2.3643123E3,2.122628E3,6.557331E2,1.1304236E3,1.7264761E3,1.6130316E3,8.919194E2,8.9191614E2,1.5536569E3,1.1164623E3,2.669013E2,7.238902E1,1.0319955E3,1.0247384E3,2.2212832E3,1.3295967E3,4.265626E2,2.2557563E3,5.0481357E2,2.661743E3,7.5735756E1,3.8582062E2,3.4188323E3,1.2946039E3,7.4877594E2,2.0593464E3,1.9674251E2,1.0831086E3,5.0202103E2,1.8622911E3,5.9328465E1,2.0632996E3,4.150084E2,2.4072467E2,2.2813531E2,9.0228827E2,8.169113E2,9.095648E2,3.2243048E2,1.2906011E3,7.1711926E2,1.7480014E2,6.050849E2,2.868312E2,2.7480273E2,1.2788541E3,4.7276352E2,6.436988E2,2.5529468E2,1.1606617E1,1.088328E1,6.150574E1,9.89431E2,4.256442E1,4.2338696E2,6.013514E2,7.319811E2,1.4893021E3,1.1340635E3,1.9553317E2,1.7357115E2,2.5299144E2,5.9983154E1,2.1957732E3,3.6002603E2,1.4478754E2,2.5827954E3,7.894753E1,6.436358E1,1.1372174E1,1.372317E2,2.4858891E2,4.477983E1,3.3740525E3,3.834919E2,9.1111194E2,2.2976564E2,5.190103E2,8.414359E2,1.2179105E3,1.5990237E2,3.6840126E1,1.0504348E3,3.267373E1,4.2093405E2,8.1086975E1,1.4481875E3,4.1410364E2,1.7174978E1,4.2153484E1,9.236977E2,1.1396019E3,2.7531818E2,1.3969022E2,7.5878784E1,1.6484589E2,1.4907075E1,2.1322824E2,7.1382745E2,1.884608E2],"tree_param":{"num_deleted":"0","num_feature":"208","num_nodes":"127","size_leaf_vector":"1"}},{"base_weights":[-3.537994E-3,-4.4531444E-1,4.5630127E-1,-1.9546536E-1,-7.641645E-1,1.6046508E-1,9.2873204E-1,-5.399333E-1,-4.139037E-2,-9.762668E-1,-6.2897366E-1,4.876042E-1,-1.5113607E-1,7.0331913E-1,1.0573809E0,-9.935756E-1,-4.0719363E-1,1.3938408E-1,-3.8816905E-1,-1.0620171E0,-6.1879194E-1,-4.913867E-1,-8.7685037E-1,7.236857E-1,3.0362082E-1,-3.8607687E-1,4.7027033E-2,8.038393E-1,2.941166E-1,6.628102E-1,1.107692E0,-1.090345E0,-1.09544E-1,-5.6310487E-1,3.3588044E-2,2.6686126E-1,-2.8402442E-1,-6.729863E-1,-2.3037578E-1,-1.068383E0,7.7240124E-2,1.203401E0,-6.844617E-1,-6.423192E-1,-2.227649E-1,-5.041335E-1,-1.0617958E0,-1.7027286E-1,7.8355867E-1,4.584421E-1,-6.757415E-2,-5.016033E-1,1.1016133E-1,1.9791241E-1,-2.7020562E-1,8.7508494E-1,2.978103E-1,4.116213E-1,-2.9014423E-1,7.022616E-1,-8.7612444E-1,1.1677701E0,9.1817844E-1,7.5981446E-2,-5.5717137E-2,-6.2212773E-2,3.157184E-2,-1.2291684E-2,-4.0232595E-2,-9.349801E-3,2.7898291E-2,-6.45394E-3,1.9961663E-2,-2.3311226E-2,7.233757E-3,-5.273953E-2,-2.4489535E-2,1.7432772E-2,-1.5249245E-2,-5.5273045E-2,-3.329226E-2,9.285528E-2,-1.9277394E-2,-1.9290237E-2,-5.322941E-2,-2.8238216E-2,-5.2958876E-2,4.3664714E-3,-2.2047782E-2,-2.7746787E-2,6.8120815E-2,-5.430181E-2,6.2005945E-2,1.3090837E-2,-4.066604E-2,4.5341067E-2,2.513567E-2,-2.0722197E-3,2.9264096E-2,-1.9164879E-2,1.085276E-2,-1.7936146E-2,-4.2675216E-2,2.4212133E-2,-1.0716553E-2,-3.78524E-2,1.2970813E-2,-9.489547E-3,-5.802002E-2,4.707693E-2,1.7270295E-2,4.8065167E-2,7.0255436E-3,3.4588326E-2,3.545931E-3,3.1349905E-2,-2.7514074E-2,2.4125414E-2,4.9014587E-2,6.8684825E-4,-8.250162E-2,5.2580696E-2,6.155319E-2,5.090336E-2,3.0496899E-2],"categories":[],"categories_nodes":[],"categories_segments":[],"categories_sizes":[],"default_left":[0,0,0,0,0,0,0,0,0,0,0,0,0,0,0,0,0,0,0,0,0,0,0,0,0,0,0,0,0,0,0,0,0,0,0,0,0,0,0,0,0,0,0,0,0,0,0,0,0,0,0,0,0,0,0,0,0,0,0,0,0,0,0,0,0,0,0,0,0,0,0,0,0,0,0,0,0,0,0,0,0,0,0,0,0,0,0,0,0,0,0,0,0,0,0,0,0,0,0,0,0,0,0,0,0,0,0,0,0,0,0,0,0,0,0,0,0,0,0,0,0,0,0,0,0],"id":12,"left_children":[1,3,5,7,9,11,13,15,17,19,21,23,25,27,29,31,33,35,37,39,41,43,45,47,49,51,53,55,57,59,61,63,65,67,69,71,73,75,77,79,-1,81,83,85,87,89,91,93,95,97,99,101,103,105,107,109,111,113,115,117,119,121,123,-1,-1,-1,-1,-1,-1,-1,-1,-1,-1,-1,-1,-1,-1,-1,-1,-1,-1,-1,-1,-1,-1,